<?xml version='1.0' encoding='utf-8'?>
<smile version="1.0" id="genie_ready_2024_10" numsamples="10000" discsamples="10000">
	<nodes>
		<cpt id="road_type">
			<state id="State1" />
			<state id="State2" />
			<state id="State3" />
			<state id="State6" />
			<state id="State7" />
			<state id="State9" />
			<probabilities>0.0176991150 0.1769911504 0.1238938053 0.5309734513 0.0176991150 0.1327433628</probabilities>
		</cpt>
		<cpt id="speed_limit">
			<state id="State20" />
			<state id="State30" />
			<state id="State40" />
			<state id="State50" />
			<state id="State60" />
			<state id="State70" />
			<parents>road_type</parents>
			<probabilities>0.0928158967 0.5386379076 0.1745923913 0.0641134511 0.0848335598 0.0450067935 0.6085651937 0.3696126568 0.0098745226 0.0039825423 0.0079105292 0.0000545554 0.0604065726 0.2111860122 0.1597587950 0.1076469349 0.0430535075 0.4179481778 0.1453463490 0.5070276921 0.0892108703 0.0549713682 0.2034425574 0.0000011629 0.0994505495 0.2401098901 0.1398351648 0.0744505495 0.0780219780 0.3681318681 0.4948311509 0.4176430048 0.0179186768 0.0086147484 0.0289455548 0.0320468642</probabilities>
		</cpt>
		<cpt id="weather_conditions">
			<state id="State1" />
			<state id="State2" />
			<state id="State3" />
			<state id="State4" />
			<state id="State5" />
			<state id="State6" />
			<state id="State7" />
			<state id="State8" />
			<state id="State9" />
			<probabilities>0.4504504505 0.0900900901 0.1351351351 0.0450450450 0.1351351351 0.0270270270 0.0180180180 0.0090090090 0.0900900901</probabilities>
		</cpt>
		<cpt id="number_of_casualties">
			<state id="Few" />
			<state id="Many" />
			<state id="One" />
			<state id="Two" />
			<parents>speed_limit weather_conditions</parents>
			<probabilities>0.0750964813 0.0152553916 0.7572758229 0.1523723042 0.0962233169 0.0039408867 0.7330049261 0.1668308703 0.3157894737 0.1578947368 0.2105263158 0.3157894737 0.0892857143 0.0010504202 0.7321428571 0.1775210084 0.0418781726 0.0012690355 0.8439086294 0.1129441624 0.2586206897 0.3448275862 0.0948275862 0.3017241379 0.3166666667 0.2500000000 0.4000000000 0.0333333333 0.0660244361 0.0002349624 0.7831296992 0.1506109023 0.0273212818 0.0002054232 0.9065324569 0.0659408381 0.1421861657 0.0113908708 0.6341698576 0.2122531060 0.1527914688 0.0110224931 0.6019356573 0.2342503809 0.0932017544 0.0010964912 0.5537280702 0.3519736842 0.0991735537 0.0495867769 0.6198347107 0.2314049587 0.2027027027 0.0822072072 0.5123873874 0.2027027027 0.1142857143 0.4000000000 0.2571428571 0.2285714286 0.2356495468 0.0543806647 0.4924471299 0.2175226586 0.1570762053 0.0093312597 0.6251944012 0.2083981337 0.0702898551 0.0001449275 0.8366666667 0.0928985507 0.2153678412 0.0297830827 0.4940319063 0.2608171697 0.2244684559 0.0209132102 0.4646218194 0.2899965145 0.1851851852 0.2222222222 0.4074074074 0.1851851852 0.2540160643 0.0010040161 0.4387550201 0.3062248996 0.2150537634 0.1612903226 0.4157706093 0.2078853047 0.2727272727 0.3333333333 0.2424242424 0.1515151515 0.2735229759 0.3829321663 0.3282275711 0.0153172867 0.1290887850 0.0005841121 0.6734813084 0.1968457944 0.1697080292 0.0018248175 0.6660583942 0.1624087591 0.2656205691 0.0330844125 0.4156347481 0.2856602703 0.2746858169 0.0263315380 0.4129263914 0.2860562537 0.1666666667 0.2500000000 0.2500000000 0.3333333333 0.2303571429 0.0017857143 0.4375000000 0.3303571429 0.2445945946 0.0013513514 0.4500000000 0.3040540541 0.1578947368 0.3947368421 0.3157894737 0.1315789474 0.2988281250 0.0019531250 0.2441406250 0.4550781250 0.2816742081 0.0011312217 0.4626696833 0.2545248869 0.3076923077 0.2307692308 0.3846153846 0.0769230769 0.2695571312 0.0249912821 0.4103607269 0.2950908598 0.2565922921 0.0301724138 0.4120182556 0.3012170385 0.2272727273 0.2272727273 0.2272727273 0.3181818182 0.3423787529 0.0005773672 0.4162817552 0.2407621247 0.3075815739 0.0004798464 0.3421305182 0.3498080614 0.1412429379 0.4067796610 0.1977401130 0.2542372881 0.2636815920 0.0746268657 0.3631840796 0.2985074627 0.2125890736 0.0166270784 0.4429928741 0.3277909739 0.0019531250 0.0019531250 0.7128906250 0.2832031250 0.2868314275 0.0609369236 0.3782368130 0.2739948359 0.2596685083 0.1949951251 0.3217419565 0.2235944101 0.0428571429 0.6500000000 0.2071428571 0.1000000000 0.2003012048 0.0015060241 0.4111445783 0.3870481928 0.1841541756 0.2633832976 0.3254817987 0.2269807281 0.1698113208 0.3018867925 0.2452830189 0.2830188679 0.4000000000 0.2666666667 0.2333333333 0.1000000000 0.1390306122 0.0012755102 0.4196428571 0.4400510204 0.3928571429 0.1964285714 0.3571428571 0.0535714286</probabilities>
		</cpt>
		<cpt id="road_surface_conditions">
			<state id="State1" />
			<state id="State2" />
			<state id="State3" />
			<state id="State4" />
			<state id="State5" />
			<state id="State9" />
			<parents>road_type weather_conditions</parents>
			<probabilities>0.8589987326 0.1300168990 0.0002112379 0.0085551331 0.0001056189 0.0021123785 0.0134086879 0.9834884752 0.0001108156 0.0001108156 0.0007757092 0.0021054965 0.0380228137 0.2661596958 0.3041825095 0.2851711027 0.0038022814 0.1026615970 0.5531609195 0.4410919540 0.0014367816 0.0014367816 0.0014367816 0.0014367816 0.0724637681 0.6521739130 0.0072463768 0.0289855072 0.0724637681 0.1666666667 0.0000000000 0.2961672474 0.3310104530 0.2961672474 0.0348432056 0.0418118467 0.2083333333 0.6666666667 0.0208333333 0.0520833333 0.0208333333 0.0312500000 0.6891217565 0.2370259481 0.0034930140 0.0573852295 0.0004990020 0.0124750499 0.4959935897 0.1209935897 0.0008012821 0.0104166667 0.0008012821 0.3709935897 0.8863290439 0.0988653660 0.0000691850 0.0108620451 0.0000691850 0.0038051750 0.0253623188 0.9632505176 0.0005175983 0.0005175983 0.0005175983 0.0098343685 0.0416666667 0.2916666667 0.2916666667 0.2500000000 0.0208333333 0.1041666667 0.7798165138 0.1376146789 0.0275229358 0.0366972477 0.0091743119 0.0091743119 0.0666666667 0.6000000000 0.0333333333 0.0666666667 0.1000000000 0.1333333333 0.0317460317 0.2698412698 0.2539682540 0.2539682540 0.0000000000 0.1904761905 0.2941176471 0.5147058824 0.0661764706 0.0735294118 0.0367647059 0.0147058824 0.7509689922 0.2218992248 0.0009689922 0.0067829457 0.0009689922 0.0184108527 0.4419889503 0.1767955801 0.0276243094 0.0165745856 0.0055248619 0.3314917127 0.8631589646 0.1283710530 0.0011857975 0.0062677870 0.0002371595 0.0007792384 0.0181600137 0.8725372623 0.0003426418 0.0889155388 0.0198732225 0.0001713209 0.0175925926 0.2675925926 0.1064814815 0.6009259259 0.0009259259 0.0064814815 0.6834192440 0.3122852234 0.0004295533 0.0004295533 0.0030068729 0.0004295533 0.0095939313 0.8302097278 0.1207050424 0.0015618028 0.0377063811 0.0002231147 0.0328947368 0.2960526316 0.3125000000 0.2631578947 0.0460526316 0.0493421053 0.1113231552 0.8555979644 0.0006361323 0.0311704835 0.0006361323 0.0006361323 0.4276164131 0.4511295528 0.0029967727 0.1136468419 0.0002305210 0.0043798986 0.8218390805 0.0726227795 0.0005224660 0.0036572623 0.0005224660 0.1008359457 0.8475526282 0.1433380688 0.0002755177 0.0080416720 0.0001377588 0.0006543545 0.0226828988 0.9653152636 0.0011485012 0.0018950270 0.0072355576 0.0017227518 0.0366759517 0.2790157846 0.4517177344 0.2316620241 0.0004642526 0.0004642526 0.5992619926 0.3859778598 0.0007380074 0.0110701107 0.0022140221 0.0007380074 0.0068465154 0.9528918864 0.0001021868 0.0001021868 0.0381156755 0.0019415492 0.0198412698 0.3174603175 0.2976190476 0.2777777778 0.0277777778 0.0595238095 0.1851630867 0.7842084328 0.0001988862 0.0288385044 0.0001988862 0.0013922037 0.4913770231 0.4027593526 0.0010612895 0.1008224993 0.0018572566 0.0021225789 0.5793071161 0.1388576779 0.0012172285 0.0040262172 0.0000936330 0.2764981273 0.8641379310 0.1275862069 0.0010344828 0.0051724138 0.0003448276 0.0017241379 0.0169785170 0.9733194733 0.0003465003 0.0003465003 0.0086625087 0.0003465003 0.0326797386 0.3137254902 0.2777777778 0.2450980392 0.0261437908 0.1045751634 0.7876106195 0.1150442478 0.0088495575 0.0442477876 0.0221238938 0.0221238938 0.0800000000 0.6800000000 0.0400000000 0.0560000000 0.0480000000 0.0960000000 0.0000000000 0.2400000000 0.3800000000 0.3200000000 0.0000000000 0.0600000000 0.4242424242 0.3515151515 0.0121212121 0.0848484848 0.0848484848 0.0424242424 0.6169296987 0.1793400287 0.0215208034 0.0215208034 0.0028694405 0.1578192253 0.5699916178 0.1508801341 0.0083822297 0.0586756077 0.0025146689 0.2095557418 0.8481837607 0.1167735043 0.0039529915 0.0058760684 0.0001068376 0.0251068376 0.0576619273 0.9060031596 0.0007898894 0.0007898894 0.0007898894 0.0339652449 0.0429553265 0.3006872852 0.3436426117 0.1804123711 0.0000000000 0.1323024055 0.5735027223 0.2903811252 0.0090744102 0.0272232305 0.0090744102 0.0907441016 0.0547945205 0.5890410959 0.0342465753 0.1232876712 0.0342465753 0.1643835616 0.0066225166 0.1986754967 0.2814569536 0.2814569536 0.0000000000 0.2317880795 0.2960526316 0.4539473684 0.0131578947 0.0789473684 0.0065789474 0.1513157895 0.8394777266 0.0745007680 0.0007680492 0.0192012289 0.0053763441 0.0606758833 0.0788966049 0.0071373457 0.0001929012 0.0001929012 0.0013503086 0.9122299383</probabilities>
		</cpt>
		<cpt id="light_conditions">
			<state id="State1" />
			<state id="State4" />
			<state id="State5" />
			<state id="State6" />
			<state id="State7" />
			<parents>road_surface_conditions speed_limit</parents>
			<probabilities>0.7542771198 0.2301184433 0.0044651250 0.0035250987 0.0076142132 0.7772068772 0.1967985650 0.0054117325 0.0091208975 0.0114619279 0.7815730925 0.1639183353 0.0053657898 0.0394581861 0.0096845963 0.7855789591 0.1149002563 0.0027861362 0.0875961217 0.0091385267 0.8235961429 0.0284080166 0.0041123086 0.1354698431 0.0084136888 0.7591653996 0.1082108464 0.0099679000 0.1082108464 0.0144450076 0.5313897335 0.4337327848 0.0143087104 0.0085852263 0.0119835450 0.5478115662 0.4008173668 0.0119089471 0.0220161716 0.0174459483 0.5660630449 0.3122065728 0.0145875252 0.0937290409 0.0134138162 0.5900233827 0.2062873474 0.0127305794 0.1831644583 0.0077942323 0.6234857366 0.0497264556 0.0061547479 0.3064673701 0.0141656897 0.5294357303 0.1772255042 0.0120187411 0.2690975759 0.0122224486 0.3668639053 0.4142011834 0.0118343195 0.1183431953 0.0887573964 0.5751937984 0.3503875969 0.0403100775 0.0325581395 0.0015503876 0.2671755725 0.4580152672 0.0229007634 0.0763358779 0.1755725191 0.2259887006 0.3672316384 0.0395480226 0.1694915254 0.1977401130 0.2258064516 0.2580645161 0.1612903226 0.1290322581 0.2258064516 0.6871794872 0.0782051282 0.0012820513 0.2320512821 0.0012820513 0.4492537313 0.4940298507 0.0462686567 0.0014925373 0.0089552239 0.5086551265 0.4074567244 0.0106524634 0.0519307590 0.0213049268 0.6696132597 0.2165745856 0.0011049724 0.1005524862 0.0121546961 0.6641221374 0.1450381679 0.0076335878 0.1679389313 0.0152671756 0.5403087479 0.0240137221 0.0017152659 0.4082332762 0.0257289880 0.2632111252 0.0268015171 0.0002528445 0.7044247788 0.0053097345 0.2000000000 0.2333333333 0.0333333333 0.1000000000 0.4333333333 0.2608695652 0.5652173913 0.0000000000 0.0000000000 0.1739130435 0.3297872340 0.3723404255 0.0000000000 0.1329787234 0.1648936170 0.4166666667 0.2604166667 0.0104166667 0.0000000000 0.3125000000 0.4707964602 0.0106194690 0.0017699115 0.5150442478 0.0017699115 0.5455882353 0.1191176471 0.0676470588 0.2661764706 0.0014705882 0.6895348837 0.1500000000 0.0127906977 0.0116279070 0.1360465116 0.6728232190 0.1820580475 0.0131926121 0.0079155673 0.1240105541 0.5737704918 0.2049180328 0.1229508197 0.0163934426 0.0819672131 0.4651162791 0.2713178295 0.0310077519 0.1162790698 0.1162790698 0.4430379747 0.2531645570 0.0126582278 0.1518987342 0.1392405063 0.4240506329 0.2215189873 0.0253164557 0.1898734177 0.1392405063</probabilities>
		</cpt>
		<cpt id="urban_or_rural_area">
			<state id="State1" />
			<state id="State2" />
			<state id="State3" />
			<parents>light_conditions</parents>
			<probabilities>0.5684403064 0.4314909301 0.0000687635 0.8020731042 0.1979185027 0.0000083931 0.6210205993 0.3787453184 0.0002340824 0.0756659786 0.9243094466 0.0000245749 0.6223711882 0.3774973712 0.0001314406</probabilities>
		</cpt>
		<cpt id="casualty_type">
			<state id="Cyclist" />
			<state id="Pedestrian" />
			<state id="VehicleOccupant" />
			<parents>speed_limit number_of_casualties</parents>
			<probabilities>0.8936988937 0.0918710919 0.0144300144 0.9096045198 0.0508474576 0.0395480226 0.2568336862 0.6700070572 0.0731592566 0.7183468705 0.2276636407 0.0539894888 0.9656080558 0.0225406662 0.0118512781 0.9763851045 0.0199818347 0.0036330609 0.4313178621 0.4837130979 0.0849690400 0.8703048590 0.0921860368 0.0375091042 0.9678958785 0.0091106291 0.0229934924 0.9093333333 0.0901333333 0.0005333333 0.6070417217 0.2705304890 0.1224277893 0.9229412802 0.0345618057 0.0424969141 0.9736994220 0.0049132948 0.0213872832 0.9479166667 0.0008012821 0.0512820513 0.6967515688 0.1548541897 0.1483942414 0.9221092077 0.0190042827 0.0588865096 0.9630927353 0.0092268162 0.0276804485 0.9876237624 0.0111386139 0.0012376238 0.6752982032 0.1605767779 0.1641250189 0.9159523312 0.0243570981 0.0596905708 0.9648873554 0.0052770449 0.0298355998 0.9686018957 0.0142180095 0.0171800948 0.8329754601 0.0585889571 0.1084355828 0.9427659574 0.0117021277 0.0455319149</probabilities>
		</cpt>
		<cpt id="collision_severity">
			<state id="State1" />
			<state id="State2" />
			<state id="State3" />
			<parents>number_of_casualties urban_or_rural_area casualty_type speed_limit</parents>
			<probabilities>0.0162412993 0.2320185615 0.7517401392 0.0173722045 0.2995207668 0.6831070288 0.0211718365 0.3471196455 0.6317085180 0.0179640719 0.3323353293 0.6497005988 0.0234375000 0.5312500000 0.4453125000 0.0145888594 0.2745358090 0.7108753316 0.0955056180 0.5224719101 0.3820224719 0.0566037736 0.5320754717 0.4113207547 0.0400000000 0.3600000000 0.6000000000 0.0294117647 0.4191176471 0.5514705882 0.0500000000 0.2500000000 0.7000000000 0.0970873786 0.3398058252 0.5631067961 0.0136054422 0.4081632653 0.5782312925 0.0508474576 0.5338983051 0.4152542373 0.0390625000 0.3515625000 0.6093750000 0.0400000000 0.2800000000 0.6800000000 0.0434782609 0.3043478261 0.6521739130 0.0555555556 0.2777777778 0.6666666667 0.0522388060 0.3134328358 0.6343283582 0.0187755102 0.2832653061 0.6979591837 0.0337309749 0.3907856849 0.5754833402 0.0807108478 0.3761569789 0.5431321733 0.0792240300 0.4375469337 0.4832290363 0.0650000000 0.3387500000 0.5962500000 0.0598290598 0.5555555556 0.3846153846 0.1785714286 0.4642857143 0.3571428571 0.0131578947 0.5921052632 0.3947368421 0.1869158879 0.4205607477 0.3925233645 0.0521739130 0.6086956522 0.3391304348 0.1363636364 0.3636363636 0.5000000000 0.0265486726 0.3539823009 0.6194690265 0.0877192982 0.2631578947 0.6491228070 0.0983606557 0.2868852459 0.6147540984 0.2105263158 0.6315789474 0.1578947368 0.3030303030 0.3852813853 0.3116883117 0.0545454545 0.2000000000 0.7454545455 0.0283018868 0.1981132075 0.7735849057 0.0192307692 0.2884615385 0.6923076923 0.0625000000 0.2678571429 0.6696428571 0.0471698113 0.2452830189 0.7075471698 0.0487804878 0.3414634146 0.6097560976 0.0813008130 0.3658536585 0.5528455285 0.0530973451 0.3097345133 0.6371681416 0.0707964602 0.2654867257 0.6637168142 0.0202020202 0.5555555556 0.4242424242 0.0630630631 0.2882882883 0.6486486486 0.1568627451 0.4379084967 0.4052287582 0.1153846154 0.6250000000 0.2596153846 0.0086206897 0.3620689655 0.6293103448 0.0196078431 0.2647058824 0.7156862745 0.0153846154 0.4076923077 0.5769230769 0.1481481481 0.3333333333 0.5185185185 0.0340909091 0.2045454545 0.7613636364 0.0454545455 0.2272727273 0.7272727273 0.0011001100 0.6050605061 0.3938393839 0.0647820966 0.3333333333 0.6018845701 0.0016420361 0.4893267652 0.5090311987 0.0285714286 0.3047619048 0.6666666667 0.0608695652 0.6521739130 0.2869565217 0.1327433628 0.5752212389 0.2920353982 0.0666666667 0.5333333333 0.4000000000 0.1839080460 0.4022988506 0.4137931034 0.3065693431 0.4379562044 0.2554744526 0.4067796610 0.2542372881 0.3389830508 0.3787878788 0.5075757576 0.1136363636 0.2937062937 0.5314685315 0.1748251748 0.0070921986 0.4609929078 0.5319148936 0.0500000000 0.3500000000 0.6000000000 0.1304347826 0.2608695652 0.6086956522 0.1428571429 0.5238095238 0.3333333333 0.2592592593 0.3703703704 0.3703703704 0.1463414634 0.4878048780 0.3658536585 0.2571428571 0.3857142857 0.3571428571 0.0014684288 0.9001468429 0.0983847283 0.0983606557 0.4262295082 0.4754098361 0.1378378378 0.3297297297 0.5324324324 0.1530612245 0.5535714286 0.2933673469 0.1005878511 0.6126714566 0.2867406924 0.2427184466 0.6601941748 0.0970873786 0.5170454545 0.3693181818 0.1136363636 0.2500000000 0.5833333333 0.1666666667 0.4031007752 0.5658914729 0.0310077519 0.2127659574 0.6382978723 0.1489361702 0.1565217391 0.6260869565 0.2173913043 0.4508670520 0.4335260116 0.1156069364 0.3488372093 0.5000000000 0.1511627907 0.2173913043 0.6086956522 0.1739130435 0.3750000000 0.4687500000 0.1562500000 0.4777070064 0.4585987261 0.0636942675 0.2777777778 0.4777777778 0.2444444444 0.2093023256 0.2480620155 0.5426356589 0.0916209867 0.2662490211 0.6421299922 0.0196078431 0.6862745098 0.2941176471 0.0869565217 0.3478260870 0.5652173913 0.1801801802 0.1711711712 0.6486486486 0.2075471698 0.5283018868 0.2641509434 0.1785714286 0.6785714286 0.1428571429 0.1709401709 0.6153846154 0.2136752137 0.1025641026 0.5555555556 0.3418803419 0.0336134454 0.5378151261 0.4285714286 0.0123456790 0.8024691358 0.1851851852 0.4197530864 0.4320987654 0.1481481481 0.1327433628 0.2212389381 0.6460176991 0.0405405405 0.4594594595 0.5000000000 0.2307692308 0.3846153846 0.3846153846 0.2567567568 0.3378378378 0.4054054054 0.1470588235 0.4901960784 0.3627450980 0.0684931507 0.4794520548 0.4520547945 0.0019837334 0.0870858957 0.9109303710 0.0025341615 0.1190062112 0.8784596273 0.0045901639 0.1131147541 0.8822950820 0.0011695906 0.1380116959 0.8608187135 0.0091743119 0.1467889908 0.8440366972 0.0040871935 0.1212534060 0.8746594005 0.0056274209 0.2241467514 0.7702258277 0.0090403338 0.2662194224 0.7247402438 0.0238788585 0.3051834595 0.6709376820 0.0170940171 0.2820512821 0.7008547009 0.1739130435 0.2434782609 0.5826086957 0.1025641026 0.3846153846 0.5128205128 0.0034698126 0.3004857738 0.6960444136 0.0212659495 0.3967975982 0.5819364523 0.0246679317 0.4648956357 0.5104364326 0.0022831050 0.3652968037 0.6324200913 0.0243902439 0.1219512195 0.8536585366 0.1894736842 0.1578947368 0.6526315789 0.0071770335 0.1626794258 0.8301435407 0.0038082437 0.1323924731 0.8637992832 0.0097604259 0.1401952085 0.8500443656 0.0130136986 0.1476027397 0.8393835616 0.0175214667 0.1943606405 0.7881178928 0.0153289334 0.1628699170 0.8218011497 0.0071684588 0.2759856631 0.7168458781 0.0118210863 0.3057507987 0.6824281150 0.0374238468 0.4107919930 0.5517841601 0.0396694215 0.4016528926 0.5586776860 0.0426679745 0.4546346248 0.5026974007 0.2524916944 0.3687707641 0.3787375415 0.0087719298 0.4122807018 0.5789473684 0.0330578512 0.4025974026 0.5643447462 0.0597402597 0.4116883117 0.5285714286 0.0531107739 0.4552352049 0.4916540212 0.0673674152 0.5504061156 0.3822264692 0.0664505673 0.4943273906 0.4392220421 0.0090090090 0.2702702703 0.7207207207 0.0476190476 0.2380952381 0.7142857143 0.0243902439 0.1219512195 0.8536585366 0.0637450199 0.2430278884 0.6932270916 0.3258426966 0.2247191011 0.4494382022 0.0128205128 0.2564102564 0.7307692308 0.0674157303 0.2584269663 0.6741573034 0.0200000000 0.1700000000 0.8100000000 0.0759377859 0.3385178408 0.5855443733 0.0691016782 0.2497532083 0.6811451135 0.1428571429 0.4329004329 0.4242424242 0.2236135957 0.2772808587 0.4991055456 0.0099009901 0.1485148515 0.8415841584 0.0370370370 0.2839506173 0.6790123457 0.1000000000 0.1400000000 0.7600000000 0.0220517737 0.2588686481 0.7190795781 0.1300000000 0.1400000000 0.7300000000 0.0108695652 0.2500000000 0.7391304348 0.0032822757 0.1663019694 0.8304157549 0.0049644339 0.1867219917 0.8083135744 0.0085397096 0.2147736977 0.7766865927 0.0216508796 0.1299052774 0.8484438430 0.0579710145 0.1956521739 0.7463768116 0.0171306210 0.1477516060 0.8351177730 0.0198456450 0.3969128997 0.5832414553 0.0174531351 0.3956043956 0.5869424693 0.0720000000 0.5200000000 0.4080000000 0.1512605042 0.2941176471 0.5546218487 0.0510204082 0.3367346939 0.6122448980 0.0769230769 0.4615384615 0.4615384615 0.0261780105 0.5497382199 0.4240837696 0.0409556314 0.5068259386 0.4522184300 0.0789473684 0.2631578947 0.6578947368 0.0555555556 0.2222222222 0.7222222222 0.0769230769 0.4807692308 0.4423076923 0.0625000000 0.3750000000 0.5625000000 0.0012531328 0.2531328321 0.7456140351 0.0058841747 0.2310312790 0.7630845463 0.0145228216 0.2690179806 0.7164591978 0.0269970414 0.2814349112 0.6915680473 0.0379448503 0.3024982324 0.6595569173 0.0287878788 0.2232323232 0.7479797980 0.3750000000 0.3000000000 0.3250000000 0.0400000000 0.3777777778 0.5822222222 0.1764705882 0.4117647059 0.4117647059 0.1739130435 0.5217391304 0.3043478261 0.0748898678 0.5682819383 0.3568281938 0.4369747899 0.1932773109 0.3697478992 0.0170940171 0.4273504274 0.5555555556 0.0444444444 0.5629629630 0.3925925926 0.0522388060 0.5671641791 0.3805970149 0.1739130435 0.4836956522 0.3423913043 0.1806797853 0.4973166369 0.3220035778 0.0531914894 0.5319148936 0.4148936170 0.0265486726 0.3097345133 0.6637168142 0.0133333333 0.1866666667 0.8000000000 0.0825688073 0.2293577982 0.6880733945 0.0736842105 0.2631578947 0.6631578947 0.1232876712 0.3013698630 0.5753424658 0.0892857143 0.3125000000 0.5982142857 0.0265486726 0.3539823009 0.6194690265 0.1071428571 0.2537593985 0.6390977444 0.1047619048 0.2285714286 0.6666666667 0.1500000000 0.2500000000 0.6000000000 0.0845070423 0.5492957746 0.3661971831 0.3333333333 0.1801801802 0.4864864865 0.0097087379 0.2912621359 0.6990291262 0.0526315789 0.1315789474 0.8157894737 0.0291262136 0.3177405119 0.6531332745 0.0236966825 0.2725118483 0.7037914692 0.0220820189 0.2418506835 0.7360672976 0.1447368421 0.1973684211 0.6578947368</probabilities>
		</cpt>
		<cpt id="vehicle_manoeuvre">
			<state id="AvoidingOrReversing" />
			<state id="GoingAhead" />
			<state id="Overtaking" />
			<state id="ParkingRelated" />
			<state id="PassengerPickDrop" />
			<state id="Turning" />
			<parents>road_type speed_limit</parents>
			<probabilities>0.6660567246 0.0475754803 0.1399817017 0.0164684355 0.0082342177 0.1216834401 0.5863156235 0.0720479268 0.1499290557 0.0227021914 0.0069367807 0.1620684219 0.5642023346 0.0763618677 0.1152723735 0.0447470817 0.0053501946 0.1940661479 0.5125827815 0.1033112583 0.1125827815 0.0635761589 0.0105960265 0.1973509934 0.5425425425 0.0930930931 0.0960960961 0.0470470470 0.0130130130 0.2082082082 0.5301886792 0.0849056604 0.0962264151 0.0773584906 0.0113207547 0.2000000000 0.6175363098 0.0925228618 0.1204948897 0.0199031737 0.0129101668 0.1366325982 0.5376439327 0.1328609389 0.1505757307 0.0310008857 0.0168290523 0.1310894597 0.0090090090 0.3378378378 0.2927927928 0.1801801802 0.0675675676 0.1126126126 0.0126582278 0.5379746835 0.1582278481 0.1202531646 0.0759493671 0.0949367089 0.1142857143 0.4000000000 0.2000000000 0.0857142857 0.0571428571 0.1428571429 0.0793650794 0.5555555556 0.1587301587 0.0238095238 0.0634920635 0.1190476190 0.5318221447 0.0771578030 0.1564952049 0.0287707062 0.0361813426 0.1695727986 0.5643391521 0.0971321696 0.1531172070 0.0361596010 0.0145885287 0.1346633416 0.5793637712 0.1086204055 0.1018625350 0.0431844404 0.0125267842 0.1544420636 0.6386986301 0.0785225049 0.0494129159 0.0591976517 0.0151663405 0.1590019569 0.5712538226 0.1039755352 0.0733944954 0.0605504587 0.0342507645 0.1565749235 0.6793724798 0.0664692540 0.0148059476 0.0645791331 0.0154359879 0.1593371976 0.6121939510 0.0810369659 0.1380220835 0.0189630341 0.0341334614 0.1156505041 0.5864802378 0.0905400198 0.1629830452 0.0236017836 0.0289414290 0.1074534845 0.6440359797 0.0563159953 0.1311693391 0.0326945639 0.0287837309 0.1070003911 0.6609545570 0.0482355928 0.1219852755 0.0299568418 0.0392231531 0.0996445798 0.7090478804 0.0363904514 0.0964467005 0.0243860612 0.0397859789 0.0939429277 0.0091827365 0.6767676768 0.2571166208 0.0000000000 0.0018365473 0.0550964187 0.6767955801 0.0828729282 0.0856353591 0.0165745856 0.0110497238 0.1270718232 0.5366132723 0.1006864989 0.1556064073 0.0389016018 0.0160183066 0.1521739130 0.5088408644 0.1218074656 0.1021611002 0.0726915521 0.0117878193 0.1827111984 0.5129151292 0.1512915129 0.0996309963 0.0442804428 0.0110701107 0.1808118081 0.4929577465 0.1056338028 0.1443661972 0.0457746479 0.0211267606 0.1901408451 0.5597014925 0.1335820896 0.0455223881 0.0768656716 0.0044776119 0.1798507463 0.9317548747 0.0306406685 0.0104456825 0.0069637883 0.0069637883 0.0132311978 0.8457095710 0.0420792079 0.0396039604 0.0140264026 0.0099009901 0.0486798680 0.0485436893 0.6310679612 0.1165048544 0.0291262136 0.0194174757 0.1553398058 0.0266666667 0.4666666667 0.1466666667 0.0266666667 0.1333333333 0.2000000000 0.0057142857 0.8571428571 0.0800000000 0.0228571429 0.0114285714 0.0228571429 0.0339270568 0.6785411366 0.2629346904 0.0042408821 0.0118744699 0.0084817642</probabilities>
		</cpt>
		<cpt id="sex_of_driver">
			<state id="State1" />
			<state id="State2" />
			<state id="State3" />
			<parents>vehicle_manoeuvre</parents>
			<probabilities>0.7007761761 0.2788610803 0.0203627435 0.6358596400 0.3545525698 0.0095877902 0.6290373529 0.3607360025 0.0102266446 0.6492537313 0.3387410772 0.0120051914 0.8161778102 0.1643286573 0.0194935325 0.6522208385 0.3372353674 0.0105437941</probabilities>
		</cpt>
		<cpt id="age_band_of_driver">
			<state id="Adult" />
			<state id="Senior" />
			<state id="Young" />
			<parents>vehicle_manoeuvre</parents>
			<probabilities>0.6239822588 0.3643830192 0.0116347220 0.5825723976 0.4152752413 0.0021523611 0.5916449499 0.4033404407 0.0050146095 0.5953926022 0.4005515899 0.0040558079 0.6946620514 0.2987793769 0.0065585717 0.5818181818 0.4108758821 0.0073059361</probabilities>
		</cpt>
		<cpt id="number_of_vehicles">
			<state id="LargeCrash" />
			<state id="MultiVehicle" />
			<state id="SingleVehicle" />
			<state id="TwoVehicles" />
			<parents>speed_limit casualty_type</parents>
			<probabilities>0.0224497464 0.1942513620 0.1114972760 0.6718016156 0.0016230604 0.0346036486 0.2532623515 0.7105109394 0.0065753425 0.0717808219 0.0695890411 0.8520547945 0.0235512860 0.1909987422 0.0650576934 0.7203922784 0.0022251441 0.0425137386 0.2968207410 0.6584403763 0.0040195736 0.0915763719 0.0754980776 0.8289059769 0.0200658880 0.2425876011 0.0762503744 0.6610961366 0.0196202532 0.0794303797 0.2243670886 0.6765822785 0.0072992701 0.1374695864 0.1070559611 0.7481751825 0.0316853319 0.2943640171 0.0746608395 0.5992898115 0.0064724919 0.0981661273 0.1844660194 0.7108953614 0.0134048257 0.1992850760 0.1197497766 0.6675603217 0.0147284214 0.2323651452 0.1440693806 0.6088370528 0.0069444444 0.1180555556 0.2128267974 0.6621732026 0.0087160577 0.1498491452 0.1974522293 0.6439825679 0.1358685619 0.3623776998 0.0745800258 0.4271737124 0.1375770021 0.1971252567 0.2197125257 0.4455852156 0.0610756609 0.2698268004 0.1294439380 0.5396536007</probabilities>
		</cpt>
	</nodes>
	<extensions>
		<genie version="1.0" app="GeNIe 5.0.5310.0 ACADEMIC" name="genie_ready_2024_10">
			<node id="collision_severity">
				<name>collision_severity</name>
				<interior color="e5f6f7" />
				<outline color="000080" />
				<font color="000000" name="Arial" size="8" />
				<position>828 756 900 804</position>
				<barchart active="true" width="128" height="72" />
			</node>
			<node id="weather_conditions">
				<name>weather_conditions</name>
				<interior color="e5f6f7" />
				<outline color="000080" />
				<font color="000000" name="Arial" size="8" />
				<position>324 95 396 143</position>
				<barchart active="true" width="128" height="180" />
			</node>
			<node id="light_conditions">
				<name>light_conditions</name>
				<interior color="e5f6f7" />
				<outline color="000080" />
				<font color="000000" name="Arial" size="8" />
				<position>984 95 1056 143</position>
				<barchart active="true" width="128" height="108" />
			</node>
			<node id="road_surface_conditions">
				<name>road_surface_conditions</name>
				<interior color="e5f6f7" />
				<outline color="000080" />
				<font color="000000" name="Arial" size="8" />
				<position>660 97 732 145</position>
				<barchart active="true" width="128" height="126" />
			</node>
			<node id="road_type">
				<name>road_type</name>
				<interior color="e5f6f7" />
				<outline color="000080" />
				<font color="000000" name="Arial" size="8" />
				<position>488 200 560 248</position>
				<barchart active="true" width="128" height="126" />
			</node>
			<node id="speed_limit">
				<name>speed_limit</name>
				<interior color="e5f6f7" />
				<outline color="000080" />
				<font color="000000" name="Arial" size="8" />
				<position>824 307 896 355</position>
				<barchart active="true" width="128" height="126" />
			</node>
			<node id="urban_or_rural_area">
				<name>urban_or_rural_area</name>
				<interior color="e5f6f7" />
				<outline color="000080" />
				<font color="000000" name="Arial" size="8" />
				<position>985 749 1057 797</position>
				<barchart active="true" width="128" height="72" />
			</node>
			<node id="sex_of_driver">
				<name>sex_of_driver</name>
				<interior color="e5f6f7" />
				<outline color="000080" />
				<font color="000000" name="Arial" size="8" />
				<position>434 509 506 557</position>
				<barchart active="true" width="128" height="72" />
			</node>
			<node id="age_band_of_driver">
				<name>age_band_of_driver</name>
				<interior color="e5f6f7" />
				<outline color="000080" />
				<font color="000000" name="Arial" size="8" />
				<position>429 367 501 415</position>
				<barchart active="true" width="128" height="72" />
			</node>
			<node id="vehicle_manoeuvre">
				<name>vehicle_manoeuvre</name>
				<interior color="e5f6f7" />
				<outline color="000080" />
				<font color="000000" name="Arial" size="8" />
				<position>587 373 659 421</position>
				<barchart active="true" width="128" height="126" />
			</node>
			<node id="casualty_type">
				<name>casualty_type</name>
				<interior color="e5f6f7" />
				<outline color="000080" />
				<font color="000000" name="Arial" size="8" />
				<position>568 670 640 718</position>
				<barchart active="true" width="128" height="72" />
			</node>
			<node id="number_of_vehicles">
				<name>number_of_vehicles</name>
				<interior color="e5f6f7" />
				<outline color="000080" />
				<font color="000000" name="Arial" size="8" />
				<position>739 589 811 637</position>
				<barchart active="true" width="128" height="90" />
			</node>
			<node id="number_of_casualties">
				<name>number_of_casualties</name>
				<interior color="e5f6f7" />
				<outline color="000080" />
				<font color="000000" name="Arial" size="8" />
				<position>325 758 397 806</position>
				<barchart active="true" width="128" height="90" />
			</node>
			<textbox>
				<caption>Input file: genie_ready_2024_10.csv\nData rows: 202661\nElapsed time: 9.172s\n\nLearning algorithm: Bayesian Search\nAlgorithm parameters:\nIterations: 20\nMax parent count: 8\nSample size: 50\nLink probability: 0.1\nPrior link probability: 0.001\nSeed: 0\nMax search time: 0\nNo background knowledge\n\nBest score in iteration 19: -2.07063e+06\nEM Log Likelihood: -2.12649e+06</caption>
				<font color="000000" name="Arial" size="8" />
				<position>10 202 203 440</position>
			</textbox>
		</genie>
	</extensions>
</smile>