<?xml version='1.0' encoding='utf-8'?>
<smile version="1.0" id="genie_ready_2024_10" numsamples="10000" discsamples="10000">
	<nodes>
		<cpt id="road_type">
			<state id="State1" />
			<state id="State2" />
			<state id="State3" />
			<state id="State6" />
			<state id="State7" />
			<state id="State9" />
			<probabilities>0.0176991150 0.1769911504 0.1238938053 0.5309734513 0.0176991150 0.1327433628</probabilities>
		</cpt>
		<cpt id="speed_limit">
			<state id="State20" />
			<state id="State30" />
			<state id="State40" />
			<state id="State50" />
			<state id="State60" />
			<state id="State70" />
			<parents>road_type</parents>
			<probabilities>0.2692307692 0.5384615385 0.0769230769 0.0769230769 0.0384615385 0.0000000000 0.1071428571 0.5714285714 0.1428571429 0.1428571429 0.0357142857 0.0000000000 0.0000000000 0.0833333333 0.0250000000 0.0833333333 0.0166666667 0.7916666667 0.0937500000 0.1875000000 0.0937500000 0.0625000000 0.5000000000 0.0625000000 0.0069930070 0.0909090909 0.0139860140 0.2167832168 0.0209790210 0.6503496503 0.0403022670 0.3778337531 0.4030226700 0.1511335013 0.0025188917 0.0251889169</probabilities>
		</cpt>
		<cpt id="weather_conditions">
			<state id="State1" />
			<state id="State2" />
			<state id="State3" />
			<state id="State4" />
			<state id="State5" />
			<state id="State6" />
			<state id="State7" />
			<state id="State8" />
			<state id="State9" />
			<probabilities>0.4504504505 0.0900900901 0.1351351351 0.0450450450 0.1351351351 0.0270270270 0.0180180180 0.0090090090 0.0900900901</probabilities>
		</cpt>
		<cpt id="number_of_casualties">
			<state id="Few" />
			<state id="Many" />
			<state id="One" />
			<state id="Two" />
			<parents>speed_limit weather_conditions</parents>
			<probabilities>0.1898734177 0.0126582278 0.5696202532 0.2278481013 0.2450980392 0.2941176471 0.2156862745 0.2450980392 0.3157894737 0.1578947368 0.2105263158 0.3157894737 0.1456310680 0.0679611650 0.6990291262 0.0873786408 0.2564102564 0.2136752137 0.2564102564 0.2735042735 0.2586206897 0.3448275862 0.0948275862 0.3017241379 0.3166666667 0.2500000000 0.4000000000 0.0333333333 0.3125000000 0.0625000000 0.5208333333 0.1041666667 0.3424657534 0.0684931507 0.5479452055 0.0410958904 0.2307692308 0.1538461538 0.3846153846 0.2307692308 0.4000000000 0.1333333333 0.2666666667 0.2000000000 0.2800000000 0.1600000000 0.3200000000 0.2400000000 0.0425531915 0.2553191489 0.5319148936 0.1702127660 0.2116402116 0.3544973545 0.3439153439 0.0899470899 0.1142857143 0.4000000000 0.2571428571 0.2285714286 0.1200000000 0.2000000000 0.4240000000 0.2560000000 0.1157024793 0.1652892562 0.5950413223 0.1239669421 0.3086419753 0.1851851852 0.3086419753 0.1975308642 0.3333333333 0.2000000000 0.3333333333 0.1333333333 0.3076923077 0.2307692308 0.2307692308 0.2307692308 0.1851851852 0.2222222222 0.4074074074 0.1851851852 0.2380952381 0.1428571429 0.4285714286 0.1904761905 0.1626016260 0.5284552846 0.1219512195 0.1869918699 0.2727272727 0.3333333333 0.2424242424 0.1515151515 0.2735229759 0.3829321663 0.3282275711 0.0153172867 0.2409638554 0.0602409639 0.6265060241 0.0722891566 0.2346938776 0.2551020408 0.3061224490 0.2040816327 0.2105263158 0.2105263158 0.3157894737 0.2631578947 0.2692307692 0.2307692308 0.2307692308 0.2692307692 0.1666666667 0.2500000000 0.2500000000 0.3333333333 0.2755905512 0.1338582677 0.5118110236 0.0787401575 0.1351351351 0.4054054054 0.1891891892 0.2702702703 0.1578947368 0.3947368421 0.3157894737 0.1315789474 0.1550387597 0.2325581395 0.5426356589 0.0697674419 0.3283582090 0.2238805970 0.3432835821 0.1044776119 0.3076923077 0.2307692308 0.3846153846 0.0769230769 0.5000000000 0.1875000000 0.1250000000 0.1875000000 0.2631578947 0.2105263158 0.4210526316 0.1052631579 0.2272727273 0.2272727273 0.2272727273 0.3181818182 0.3398058252 0.1456310680 0.2233009709 0.2912621359 0.2307692308 0.3589743590 0.2051282051 0.2051282051 0.1412429379 0.4067796610 0.1977401130 0.2542372881 0.2343750000 0.5078125000 0.1953125000 0.0625000000 0.3191489362 0.1489361702 0.3617021277 0.1702127660 0.2470588235 0.2352941176 0.2941176471 0.2235294118 0.4032258065 0.2419354839 0.3225806452 0.0322580645 0.1428571429 0.1904761905 0.3333333333 0.3333333333 0.1803278689 0.3278688525 0.2868852459 0.2049180328 0.2173913043 0.2173913043 0.2898550725 0.2753623188 0.2651515152 0.4545454545 0.1666666667 0.1136363636 0.1698113208 0.3018867925 0.2452830189 0.2830188679 0.0283687943 0.2836879433 0.4609929078 0.2269503546 0.1041666667 0.1041666667 0.7708333333 0.0208333333 0.3928571429 0.1964285714 0.3571428571 0.0535714286</probabilities>
		</cpt>
		<cpt id="road_surface_conditions">
			<state id="State1" />
			<state id="State2" />
			<state id="State3" />
			<state id="State4" />
			<state id="State5" />
			<state id="State9" />
			<parents>road_type weather_conditions</parents>
			<probabilities>0.7819687213 0.1379944802 0.0091996320 0.0459981601 0.0091996320 0.0156393744 0.1379310345 0.6206896552 0.0206896552 0.1034482759 0.0344827586 0.0827586207 0.0380228137 0.2661596958 0.3041825095 0.2851711027 0.0038022814 0.1026615970 0.8435972630 0.1173020528 0.0097751711 0.0097751711 0.0097751711 0.0097751711 0.0724637681 0.6521739130 0.0072463768 0.0289855072 0.0724637681 0.1666666667 0.0000000000 0.2961672474 0.3310104530 0.2961672474 0.0348432056 0.0418118467 0.2083333333 0.6666666667 0.0208333333 0.0520833333 0.0208333333 0.0312500000 0.5282199711 0.3039073806 0.0144717800 0.0217076700 0.0014471780 0.1302460203 0.5479452055 0.2602739726 0.0342465753 0.0547945205 0.0136986301 0.0890410959 0.7870370370 0.0925925926 0.0092592593 0.0092592593 0.0092592593 0.0925925926 0.1470588235 0.6250000000 0.0147058824 0.0735294118 0.0514705882 0.0882352941 0.0416666667 0.2916666667 0.2916666667 0.2500000000 0.0208333333 0.1041666667 0.7798165138 0.1376146789 0.0275229358 0.0366972477 0.0091743119 0.0091743119 0.0666666667 0.6000000000 0.0333333333 0.0666666667 0.1000000000 0.1333333333 0.0317460317 0.2698412698 0.2539682540 0.2539682540 0.0000000000 0.1904761905 0.2941176471 0.5147058824 0.0661764706 0.0735294118 0.0367647059 0.0147058824 0.7230769231 0.1538461538 0.0307692308 0.0230769231 0.0076923077 0.0615384615 0.4419889503 0.1767955801 0.0276243094 0.0165745856 0.0055248619 0.3314917127 0.7592592593 0.1759259259 0.0092592593 0.0185185185 0.0092592593 0.0277777778 0.1677852349 0.6040268456 0.0402684564 0.0134228188 0.1208053691 0.0536912752 0.0409836066 0.2868852459 0.3278688525 0.2950819672 0.0000000000 0.0491803279 0.8530805687 0.0947867299 0.0094786730 0.0189573460 0.0094786730 0.0142180095 0.0775193798 0.6589147287 0.0310077519 0.0155038760 0.1550387597 0.0620155039 0.0328947368 0.2960526316 0.3125000000 0.2631578947 0.0460526316 0.0493421053 0.4667721519 0.3560126582 0.0079113924 0.0949367089 0.0031645570 0.0712025316 0.6635802469 0.1543209877 0.0046296296 0.0231481481 0.0154320988 0.1388888889 0.6249479210 0.2499791684 0.0166652779 0.0249979168 0.0000833264 0.0833263895 0.7522123894 0.1504424779 0.0088495575 0.0176991150 0.0088495575 0.0619469027 0.2898550725 0.5797101449 0.0144927536 0.0289855072 0.0144927536 0.0724637681 0.0384615385 0.2884615385 0.3461538462 0.2692307692 0.0153846154 0.0423076923 0.7355371901 0.2066115702 0.0082644628 0.0247933884 0.0082644628 0.0165289256 0.0787401575 0.6692913386 0.0157480315 0.0944881890 0.1181102362 0.0236220472 0.0198412698 0.3174603175 0.2976190476 0.2777777778 0.0277777778 0.0595238095 0.4206349206 0.3730158730 0.0238095238 0.0555555556 0.0158730159 0.1111111111 0.5254777070 0.3901273885 0.0079617834 0.0557324841 0.0047770701 0.0159235669 0.4983388704 0.2740863787 0.0083056478 0.0415282392 0.0033222591 0.1744186047 0.7480314961 0.1574803150 0.0000000000 0.0393700787 0.0078740157 0.0472440945 0.1438848921 0.6618705036 0.0359712230 0.0143884892 0.0863309353 0.0575539568 0.0326797386 0.3137254902 0.2777777778 0.2450980392 0.0261437908 0.1045751634 0.7876106195 0.1150442478 0.0088495575 0.0442477876 0.0221238938 0.0221238938 0.0800000000 0.6800000000 0.0400000000 0.0560000000 0.0480000000 0.0960000000 0.0000000000 0.2400000000 0.3800000000 0.3200000000 0.0000000000 0.0600000000 0.4242424242 0.3515151515 0.0121212121 0.0848484848 0.0848484848 0.0424242424 0.6169296987 0.1793400287 0.0215208034 0.0215208034 0.0028694405 0.1578192253 0.5699916178 0.1508801341 0.0083822297 0.0586756077 0.0025146689 0.2095557418 0.7272727273 0.1363636364 0.0090909091 0.0272727273 0.0181818182 0.0818181818 0.0529100529 0.4232804233 0.0793650794 0.0529100529 0.1005291005 0.2910052910 0.0429553265 0.3006872852 0.3436426117 0.1804123711 0.0000000000 0.1323024055 0.5735027223 0.2903811252 0.0090744102 0.0272232305 0.0090744102 0.0907441016 0.0547945205 0.5890410959 0.0342465753 0.1232876712 0.0342465753 0.1643835616 0.0066225166 0.1986754967 0.2814569536 0.2814569536 0.0000000000 0.2317880795 0.2960526316 0.4539473684 0.0131578947 0.0789473684 0.0065789474 0.1513157895 0.3120905301 0.1161405599 0.0178677784 0.0357355569 0.1012507445 0.4169148303 0.3389830508 0.1129943503 0.0000000000 0.0734463277 0.0056497175 0.4689265537</probabilities>
		</cpt>
		<cpt id="light_conditions">
			<state id="State1" />
			<state id="State4" />
			<state id="State5" />
			<state id="State6" />
			<state id="State7" />
			<parents>road_surface_conditions speed_limit</parents>
			<probabilities>0.8947368421 0.0210526316 0.0105263158 0.0210526316 0.0526315789 0.6967213115 0.0819672131 0.0819672131 0.0983606557 0.0409836066 0.7009345794 0.0934579439 0.0373831776 0.0747663551 0.0934579439 0.6086956522 0.1565217391 0.0869565217 0.1043478261 0.0434782609 0.6086956522 0.1304347826 0.0434782609 0.0869565217 0.1304347826 0.6796116505 0.0970873786 0.0291262136 0.0970873786 0.0970873786 0.8163265306 0.0816326531 0.0714285714 0.0000000000 0.0306122449 0.5963302752 0.1376146789 0.0000000000 0.0917431193 0.1743119266 0.4814814815 0.2222222222 0.0814814815 0.0814814815 0.1333333333 0.5000000000 0.2272727273 0.0454545455 0.0909090909 0.1363636364 0.6101694915 0.2542372881 0.0338983051 0.0847457627 0.0169491525 0.6000000000 0.1200000000 0.0800000000 0.1200000000 0.0800000000 0.3668639053 0.4142011834 0.0118343195 0.1183431953 0.0887573964 0.4794520548 0.3424657534 0.0068493151 0.0684931507 0.1027397260 0.2671755725 0.4580152672 0.0229007634 0.0763358779 0.1755725191 0.2259887006 0.3672316384 0.0395480226 0.1694915254 0.1977401130 0.2258064516 0.2580645161 0.1612903226 0.1290322581 0.2258064516 0.2413793103 0.4482758621 0.0689655172 0.0344827586 0.2068965517 0.3107344633 0.3389830508 0.0677966102 0.1694915254 0.1129943503 0.3365384615 0.3365384615 0.0673076923 0.1442307692 0.1153846154 0.3453608247 0.3092783505 0.0618556701 0.1546391753 0.1288659794 0.1764705882 0.4705882353 0.1176470588 0.1176470588 0.1176470588 0.1986754967 0.4635761589 0.1059602649 0.0728476821 0.1589403974 0.1428571429 0.3125000000 0.1607142857 0.2500000000 0.1339285714 0.2000000000 0.2333333333 0.0333333333 0.1000000000 0.4333333333 0.2608695652 0.5652173913 0.0000000000 0.0000000000 0.1739130435 0.3297872340 0.3723404255 0.0000000000 0.1329787234 0.1648936170 0.4166666667 0.2604166667 0.0104166667 0.0000000000 0.3125000000 0.2777777778 0.4166666667 0.0277777778 0.2083333333 0.0694444444 0.5000000000 0.2857142857 0.1000000000 0.0142857143 0.1000000000 0.5862646566 0.1005025126 0.0117252931 0.1256281407 0.1758793970 0.5785123967 0.1652892562 0.0413223140 0.0991735537 0.1157024793 0.5737704918 0.2049180328 0.1229508197 0.0163934426 0.0819672131 0.4651162791 0.2713178295 0.0310077519 0.1162790698 0.1162790698 0.4430379747 0.2531645570 0.0126582278 0.1518987342 0.1392405063 0.4240506329 0.2215189873 0.0253164557 0.1898734177 0.1392405063</probabilities>
		</cpt>
		<cpt id="urban_or_rural_area">
			<state id="State1" />
			<state id="State2" />
			<state id="State3" />
			<parents>light_conditions</parents>
			<probabilities>0.4740740741 0.5185185185 0.0074074074 0.3989246379 0.6009886393 0.0000867227 0.3931034483 0.4482758621 0.1586206897 0.1831896552 0.8168103448 0.0000000000 0.4112149533 0.5327102804 0.0560747664</probabilities>
		</cpt>
		<cpt id="casualty_type">
			<state id="Cyclist" />
			<state id="Pedestrian" />
			<state id="VehicleOccupant" />
			<parents>speed_limit number_of_casualties</parents>
			<probabilities>0.2307692308 0.5384615385 0.2307692308 0.1842105263 0.3157894737 0.5000000000 0.3846153846 0.4615384615 0.1538461538 0.3703703704 0.3703703704 0.2592592593 0.3623188406 0.3478260870 0.2898550725 0.2307692308 0.4615384615 0.3076923077 0.1689189189 0.4054054054 0.4256756757 0.2000000000 0.5333333333 0.2666666667 0.1176470588 0.4411764706 0.4411764706 0.1081081081 0.3378378378 0.5540540541 0.1785714286 0.2857142857 0.5357142857 0.2000000000 0.3200000000 0.4800000000 0.2692307692 0.1538461538 0.5769230769 0.2531645570 0.2721518987 0.4746835443 0.2258064516 0.2903225806 0.4838709677 0.1260504202 0.2521008403 0.6218487395 0.0909090909 0.2727272727 0.6363636364 0.1401869159 0.1401869159 0.7196261682 0.1284403670 0.2293577982 0.6422018349 0.0588235294 0.2689075630 0.6722689076 0.1000000000 0.2000000000 0.7000000000 0.0721649485 0.1030927835 0.8247422680 0.0291262136 0.1456310680 0.8252427184 0.0849056604 0.2169811321 0.6981132075</probabilities>
		</cpt>
		<cpt id="collision_severity">
			<state id="State1" />
			<state id="State2" />
			<state id="State3" />
			<parents>number_of_casualties urban_or_rural_area casualty_type speed_limit</parents>
			<probabilities>0.0551181102 0.3149606299 0.6299212598 0.0099009901 0.1485148515 0.8415841584 0.0186915888 0.3271028037 0.6542056075 0.0546875000 0.3515625000 0.5937500000 0.0967741935 0.4193548387 0.4838709677 0.0709219858 0.3971631206 0.5319148936 0.0129032258 0.4387096774 0.5483870968 0.0431034483 0.3017241379 0.6551724138 0.0400000000 0.3600000000 0.6000000000 0.0294117647 0.4191176471 0.5514705882 0.0500000000 0.2500000000 0.7000000000 0.0970873786 0.3398058252 0.5631067961 0.0136054422 0.4081632653 0.5782312925 0.0322580645 0.2150537634 0.7526881720 0.0390625000 0.3515625000 0.6093750000 0.0400000000 0.2800000000 0.6800000000 0.0434782609 0.3043478261 0.6521739130 0.0555555556 0.2777777778 0.6666666667 0.0156250000 0.4843750000 0.5000000000 0.1034482759 0.2931034483 0.6034482759 0.1250000000 0.3750000000 0.5000000000 0.0754716981 0.4528301887 0.4716981132 0.1456310680 0.3398058252 0.5145631068 0.1142857143 0.4285714286 0.4571428571 0.0598290598 0.5555555556 0.3846153846 0.1785714286 0.4642857143 0.3571428571 0.0131578947 0.5921052632 0.3947368421 0.1869158879 0.4205607477 0.3925233645 0.0521739130 0.6086956522 0.3391304348 0.1363636364 0.3636363636 0.5000000000 0.0265486726 0.3539823009 0.6194690265 0.0877192982 0.2631578947 0.6491228070 0.0983606557 0.2868852459 0.6147540984 0.2105263158 0.6315789474 0.1578947368 0.1274509804 0.2843137255 0.5882352941 0.0543478261 0.2173913043 0.7282608696 0.0283018868 0.1981132075 0.7735849057 0.0192307692 0.2884615385 0.6923076923 0.0625000000 0.2678571429 0.6696428571 0.0471698113 0.2452830189 0.7075471698 0.0487804878 0.3414634146 0.6097560976 0.0813008130 0.3658536585 0.5528455285 0.0530973451 0.3097345133 0.6371681416 0.0707964602 0.2654867257 0.6637168142 0.0202020202 0.5555555556 0.4242424242 0.0630630631 0.2882882883 0.6486486486 0.1568627451 0.4379084967 0.4052287582 0.1153846154 0.6250000000 0.2596153846 0.0086206897 0.3620689655 0.6293103448 0.0196078431 0.2647058824 0.7156862745 0.0153846154 0.4076923077 0.5769230769 0.1481481481 0.3333333333 0.5185185185 0.0340909091 0.2045454545 0.7613636364 0.0454545455 0.2272727273 0.7272727273 0.0157480315 0.2755905512 0.7086614173 0.0366972477 0.3211009174 0.6422018349 0.1530612245 0.4591836735 0.3877551020 0.0285714286 0.3047619048 0.6666666667 0.0608695652 0.6521739130 0.2869565217 0.1327433628 0.5752212389 0.2920353982 0.0666666667 0.5333333333 0.4000000000 0.1839080460 0.4022988506 0.4137931034 0.3065693431 0.4379562044 0.2554744526 0.4067796610 0.2542372881 0.3389830508 0.3787878788 0.5075757576 0.1136363636 0.2937062937 0.5314685315 0.1748251748 0.0070921986 0.4609929078 0.5319148936 0.0500000000 0.3500000000 0.6000000000 0.1304347826 0.2608695652 0.6086956522 0.1428571429 0.5238095238 0.3333333333 0.2592592593 0.3703703704 0.3703703704 0.1463414634 0.4878048780 0.3658536585 0.2571428571 0.3857142857 0.3571428571 0.3246753247 0.2857142857 0.3896103896 0.3968253968 0.3174603175 0.2857142857 0.2522522523 0.4774774775 0.2702702703 0.4021739130 0.3532608696 0.2445652174 0.2016129032 0.6048387097 0.1935483871 0.2427184466 0.6601941748 0.0970873786 0.5170454545 0.3693181818 0.1136363636 0.2500000000 0.5833333333 0.1666666667 0.4031007752 0.5658914729 0.0310077519 0.2127659574 0.6382978723 0.1489361702 0.1565217391 0.6260869565 0.2173913043 0.4508670520 0.4335260116 0.1156069364 0.3488372093 0.5000000000 0.1511627907 0.2173913043 0.6086956522 0.1739130435 0.3750000000 0.4687500000 0.1562500000 0.4777070064 0.4585987261 0.0636942675 0.2777777778 0.4777777778 0.2444444444 0.2093023256 0.2480620155 0.5426356589 0.0916209867 0.2662490211 0.6421299922 0.0196078431 0.6862745098 0.2941176471 0.0869565217 0.3478260870 0.5652173913 0.1801801802 0.1711711712 0.6486486486 0.2075471698 0.5283018868 0.2641509434 0.1785714286 0.6785714286 0.1428571429 0.1709401709 0.6153846154 0.2136752137 0.1025641026 0.5555555556 0.3418803419 0.0336134454 0.5378151261 0.4285714286 0.0123456790 0.8024691358 0.1851851852 0.4197530864 0.4320987654 0.1481481481 0.1327433628 0.2212389381 0.6460176991 0.0405405405 0.4594594595 0.5000000000 0.2307692308 0.3846153846 0.3846153846 0.2567567568 0.3378378378 0.4054054054 0.1470588235 0.4901960784 0.3627450980 0.0684931507 0.4794520548 0.4520547945 0.0090090090 0.1801801802 0.8108108108 0.0695652174 0.1739130435 0.7565217391 0.0869565217 0.2065217391 0.7065217391 0.0404040404 0.2020202020 0.7575757576 0.0366972477 0.2293577982 0.7339449541 0.1095890411 0.3013698630 0.5890410959 0.0099009901 0.2475247525 0.7425742574 0.0833333333 0.2272727273 0.6893939394 0.1306620209 0.2787456446 0.5905923345 0.1203703704 0.1574074074 0.7222222222 0.1739130435 0.2434782609 0.5826086957 0.1025641026 0.3846153846 0.5128205128 0.0526315789 0.1578947368 0.7894736842 0.0277777778 0.1851851852 0.7870370370 0.0217391304 0.1630434783 0.8152173913 0.0545454545 0.1636363636 0.7818181818 0.0243902439 0.1219512195 0.8536585366 0.1894736842 0.1578947368 0.6526315789 0.0697674419 0.3488372093 0.5813953488 0.0707070707 0.4747474747 0.4545454545 0.0816326531 0.4081632653 0.5102040816 0.0853658537 0.4268292683 0.4878048780 0.2105263158 0.3578947368 0.4315789474 0.1525423729 0.3813559322 0.4661016949 0.0232558140 0.2441860465 0.7325581395 0.1379310345 0.3448275862 0.5172413793 0.1086956522 0.4565217391 0.4347826087 0.3500000000 0.4500000000 0.2000000000 0.1818181818 0.3181818182 0.5000000000 0.2233009709 0.3883495146 0.3883495146 0.2397260274 0.2397260274 0.5205479452 0.2307692308 0.4615384615 0.3076923077 0.1093750000 0.6562500000 0.2343750000 0.1111111111 0.2222222222 0.6666666667 0.1348314607 0.3370786517 0.5280898876 0.2125984252 0.2755905512 0.5118110236 0.0090090090 0.2702702703 0.7207207207 0.0476190476 0.2380952381 0.7142857143 0.0243902439 0.1219512195 0.8536585366 0.0637450199 0.2430278884 0.6932270916 0.3258426966 0.2247191011 0.4494382022 0.0128205128 0.2564102564 0.7307692308 0.0674157303 0.2584269663 0.6741573034 0.0200000000 0.1700000000 0.8100000000 0.0759377859 0.3385178408 0.5855443733 0.0691016782 0.2497532083 0.6811451135 0.1428571429 0.4329004329 0.4242424242 0.2236135957 0.2772808587 0.4991055456 0.0099009901 0.1485148515 0.8415841584 0.0370370370 0.2839506173 0.6790123457 0.1000000000 0.1400000000 0.7600000000 0.0220517737 0.2588686481 0.7190795781 0.1300000000 0.1400000000 0.7300000000 0.0108695652 0.2500000000 0.7391304348 0.0190476190 0.1714285714 0.8095238095 0.0434782609 0.2173913043 0.7391304348 0.0298507463 0.3358208955 0.6343283582 0.0170940171 0.3846153846 0.5982905983 0.2314814815 0.2129629630 0.5555555556 0.1068702290 0.3969465649 0.4961832061 0.1785714286 0.2857142857 0.5357142857 0.0476190476 0.3333333333 0.6190476190 0.0350877193 0.3947368421 0.5701754386 0.1512605042 0.2941176471 0.5546218487 0.0510204082 0.3367346939 0.6122448980 0.0769230769 0.4615384615 0.4615384615 0.0576923077 0.1250000000 0.8173076923 0.0446428571 0.1964285714 0.7589285714 0.0789473684 0.2631578947 0.6578947368 0.0555555556 0.2222222222 0.7222222222 0.0769230769 0.4807692308 0.4423076923 0.0625000000 0.3750000000 0.5625000000 0.1578947368 0.4210526316 0.4210526316 0.2473118280 0.3763440860 0.3763440860 0.1791044776 0.5223880597 0.2985074627 0.1196581197 0.5213675214 0.3589743590 0.3308823529 0.4044117647 0.2647058824 0.3375000000 0.3500000000 0.3125000000 0.3750000000 0.3000000000 0.3250000000 0.2564102564 0.4871794872 0.2564102564 0.1764705882 0.4117647059 0.4117647059 0.1739130435 0.5217391304 0.3043478261 0.3688524590 0.3688524590 0.2622950820 0.4369747899 0.1932773109 0.3697478992 0.0170940171 0.4273504274 0.5555555556 0.2659574468 0.2340425532 0.5000000000 0.2531645570 0.4430379747 0.3037974684 0.1750000000 0.2333333333 0.5916666667 0.2500000000 0.3500000000 0.4000000000 0.2079207921 0.3465346535 0.4455445545 0.0265486726 0.3097345133 0.6637168142 0.0133333333 0.1866666667 0.8000000000 0.0825688073 0.2293577982 0.6880733945 0.0736842105 0.2631578947 0.6631578947 0.1232876712 0.3013698630 0.5753424658 0.0892857143 0.3125000000 0.5982142857 0.0265486726 0.3539823009 0.6194690265 0.1071428571 0.2537593985 0.6390977444 0.1047619048 0.2285714286 0.6666666667 0.1500000000 0.2500000000 0.6000000000 0.0845070423 0.5492957746 0.3661971831 0.3333333333 0.1801801802 0.4864864865 0.0097087379 0.2912621359 0.6990291262 0.0526315789 0.1315789474 0.8157894737 0.0291262136 0.3177405119 0.6531332745 0.0236966825 0.2725118483 0.7037914692 0.0220820189 0.2418506835 0.7360672976 0.1447368421 0.1973684211 0.6578947368</probabilities>
		</cpt>
		<cpt id="vehicle_manoeuvre">
			<state id="AvoidingOrReversing" />
			<state id="GoingAhead" />
			<state id="Overtaking" />
			<state id="ParkingRelated" />
			<state id="PassengerPickDrop" />
			<state id="Turning" />
			<parents>road_type speed_limit</parents>
			<probabilities>0.0196078431 0.2450980392 0.0294117647 0.0098039216 0.0098039216 0.6862745098 0.0129032258 0.4838709677 0.0129032258 0.0000000000 0.0064516129 0.4838709677 0.0256410256 0.3589743590 0.1410256410 0.0128205128 0.0128205128 0.4487179487 0.0450450450 0.4774774775 0.0900900901 0.0000000000 0.0270270270 0.3603603604 0.0462962963 0.4166666667 0.1388888889 0.0185185185 0.0092592593 0.3703703704 0.0103092784 0.6701030928 0.1030927835 0.0000000000 0.0103092784 0.2061855670 0.0260416667 0.4427083333 0.0520833333 0.1406250000 0.1302083333 0.2083333333 0.0202702703 0.4932432432 0.2027027027 0.1013513514 0.0810810811 0.1013513514 0.0090090090 0.3378378378 0.2927927928 0.1801801802 0.0675675676 0.1126126126 0.0126582278 0.5379746835 0.1582278481 0.1202531646 0.0759493671 0.0949367089 0.1142857143 0.4000000000 0.2000000000 0.0857142857 0.0571428571 0.1428571429 0.0793650794 0.5555555556 0.1587301587 0.0238095238 0.0634920635 0.1190476190 0.0311284047 0.6887159533 0.0778210117 0.0544747082 0.0311284047 0.1167315175 0.0174064404 0.5657093124 0.1305483029 0.0078328982 0.0609225413 0.2175805048 0.0233918129 0.5964912281 0.1754385965 0.0058479532 0.0233918129 0.1754385965 0.0186741363 0.5602240896 0.2334267040 0.0373482726 0.0009337068 0.1493930906 0.0100704935 0.7552870091 0.1510574018 0.0302114804 0.0030211480 0.0503524673 0.0252100840 0.7899159664 0.1428571429 0.0084033613 0.0084033613 0.0252100840 0.0177935943 0.3113879004 0.0889679715 0.0177935943 0.3505338078 0.2135231317 0.0350877193 0.6929824561 0.0438596491 0.0614035088 0.0350877193 0.1315789474 0.0422654269 0.6762468301 0.1267962806 0.0025359256 0.0253592561 0.1267962806 0.0396039604 0.6435643564 0.1485148515 0.0099009901 0.0396039604 0.1188118812 0.0367647059 0.6985294118 0.1286764706 0.0073529412 0.0367647059 0.0919117647 0.0091827365 0.6767676768 0.2571166208 0.0000000000 0.0018365473 0.0550964187 0.1339285714 0.3392857143 0.0089285714 0.0267857143 0.0446428571 0.4464285714 0.0183486239 0.6422018349 0.1376146789 0.0458715596 0.0642201835 0.0917431193 0.0111731844 0.3910614525 0.2960893855 0.0111731844 0.0111731844 0.2793296089 0.0112994350 0.4802259887 0.2542372881 0.0169491525 0.0677966102 0.1694915254 0.0571428571 0.4142857143 0.4285714286 0.0285714286 0.0142857143 0.0571428571 0.0180180180 0.7747747748 0.1261261261 0.0090090090 0.0090090090 0.0630630631 0.0060606061 0.4545454545 0.0121212121 0.1636363636 0.1333333333 0.2303030303 0.0439560440 0.2747252747 0.2197802198 0.0989010989 0.1098901099 0.2527472527 0.0485436893 0.6310679612 0.1165048544 0.0291262136 0.0194174757 0.1553398058 0.0266666667 0.4666666667 0.1466666667 0.0266666667 0.1333333333 0.2000000000 0.0057142857 0.8571428571 0.0800000000 0.0228571429 0.0114285714 0.0228571429 0.0339270568 0.6785411366 0.2629346904 0.0042408821 0.0118744699 0.0084817642</probabilities>
		</cpt>
		<cpt id="sex_of_driver">
			<state id="State1" />
			<state id="State2" />
			<state id="State3" />
			<parents>vehicle_manoeuvre</parents>
			<probabilities>0.5273252163 0.4705363469 0.0021384368 0.5980392157 0.3921568627 0.0098039216 0.6481481481 0.2777777778 0.0740740741 0.4365079365 0.5317460317 0.0317460317 0.6486486486 0.3243243243 0.0270270270 0.5172413793 0.4310344828 0.0517241379</probabilities>
		</cpt>
		<cpt id="age_band_of_driver">
			<state id="Adult" />
			<state id="Senior" />
			<state id="Young" />
			<parents>vehicle_manoeuvre</parents>
			<probabilities>0.4787234043 0.1489361702 0.3723404255 0.4878048780 0.2073170732 0.3048780488 0.3888888889 0.1666666667 0.4444444444 0.4705882353 0.1764705882 0.3529411765 0.5700712589 0.1781472684 0.2517814727 0.4375000000 0.1875000000 0.3750000000</probabilities>
		</cpt>
		<cpt id="number_of_vehicles">
			<state id="LargeCrash" />
			<state id="MultiVehicle" />
			<state id="SingleVehicle" />
			<state id="TwoVehicles" />
			<parents>speed_limit casualty_type</parents>
			<probabilities>0.0050505051 0.2272727273 0.3636363636 0.4040404040 0.0446428571 0.2232142857 0.5089285714 0.2232142857 0.0384615385 0.1615384615 0.5384615385 0.2615384615 0.0322580645 0.3870967742 0.4193548387 0.1612903226 0.0285714286 0.3142857143 0.4571428571 0.2000000000 0.0359712230 0.5035971223 0.1654676259 0.2949640288 0.0269832704 0.4047490556 0.3237992445 0.2444684296 0.0729927007 0.4525547445 0.2554744526 0.2189781022 0.0290697674 0.4069767442 0.1744186047 0.3895348837 0.0342465753 0.3493150685 0.3082191781 0.3082191781 0.0048076923 0.3365384615 0.4182692308 0.2403846154 0.0294117647 0.4411764706 0.1470588235 0.3823529412 0.1503267974 0.4052287582 0.1830065359 0.2614379085 0.0476190476 0.4952380952 0.2190476190 0.2380952381 0.0986842105 0.2763157895 0.2302631579 0.3947368421 0.1081081081 0.3945945946 0.2702702703 0.2270270270 0.0837988827 0.1899441341 0.4748603352 0.2513966480 0.1000000000 0.3866666667 0.2333333333 0.2800000000</probabilities>
		</cpt>
	</nodes>
	<extensions>
		<genie version="1.0" app="GeNIe 5.0.5310.0 ACADEMIC" name="genie_ready_2024_10">
			<node id="collision_severity">
				<name>collision_severity</name>
				<interior color="e5f6f7" />
				<outline color="000080" />
				<font color="000000" name="Arial" size="8" />
				<position>828 756 900 804</position>
				<barchart active="true" width="128" height="72" />
			</node>
			<node id="weather_conditions">
				<name>weather_conditions</name>
				<interior color="e5f6f7" />
				<outline color="000080" />
				<font color="000000" name="Arial" size="8" />
				<position>324 95 396 143</position>
				<barchart active="true" width="128" height="180" />
			</node>
			<node id="light_conditions">
				<name>light_conditions</name>
				<interior color="e5f6f7" />
				<outline color="000080" />
				<font color="000000" name="Arial" size="8" />
				<position>984 95 1056 143</position>
				<barchart active="true" width="128" height="108" />
			</node>
			<node id="road_surface_conditions">
				<name>road_surface_conditions</name>
				<interior color="e5f6f7" />
				<outline color="000080" />
				<font color="000000" name="Arial" size="8" />
				<position>660 97 732 145</position>
				<barchart active="true" width="128" height="126" />
			</node>
			<node id="road_type">
				<name>road_type</name>
				<interior color="e5f6f7" />
				<outline color="000080" />
				<font color="000000" name="Arial" size="8" />
				<position>488 200 560 248</position>
				<barchart active="true" width="128" height="126" />
			</node>
			<node id="speed_limit">
				<name>speed_limit</name>
				<interior color="e5f6f7" />
				<outline color="000080" />
				<font color="000000" name="Arial" size="8" />
				<position>824 307 896 355</position>
				<barchart active="true" width="128" height="126" />
			</node>
			<node id="urban_or_rural_area">
				<name>urban_or_rural_area</name>
				<interior color="e5f6f7" />
				<outline color="000080" />
				<font color="000000" name="Arial" size="8" />
				<position>985 749 1057 797</position>
				<barchart active="true" width="128" height="72" />
			</node>
			<node id="sex_of_driver">
				<name>sex_of_driver</name>
				<interior color="e5f6f7" />
				<outline color="000080" />
				<font color="000000" name="Arial" size="8" />
				<position>434 509 506 557</position>
				<barchart active="true" width="128" height="72" />
			</node>
			<node id="age_band_of_driver">
				<name>age_band_of_driver</name>
				<interior color="e5f6f7" />
				<outline color="000080" />
				<font color="000000" name="Arial" size="8" />
				<position>429 367 501 415</position>
				<barchart active="true" width="128" height="72" />
			</node>
			<node id="vehicle_manoeuvre">
				<name>vehicle_manoeuvre</name>
				<interior color="e5f6f7" />
				<outline color="000080" />
				<font color="000000" name="Arial" size="8" />
				<position>587 373 659 421</position>
				<barchart active="true" width="128" height="126" />
			</node>
			<node id="casualty_type">
				<name>casualty_type</name>
				<interior color="e5f6f7" />
				<outline color="000080" />
				<font color="000000" name="Arial" size="8" />
				<position>568 670 640 718</position>
				<barchart active="true" width="128" height="72" />
			</node>
			<node id="number_of_vehicles">
				<name>number_of_vehicles</name>
				<interior color="e5f6f7" />
				<outline color="000080" />
				<font color="000000" name="Arial" size="8" />
				<position>739 589 811 637</position>
				<barchart active="true" width="128" height="90" />
			</node>
			<node id="number_of_casualties">
				<name>number_of_casualties</name>
				<interior color="e5f6f7" />
				<outline color="000080" />
				<font color="000000" name="Arial" size="8" />
				<position>325 758 397 806</position>
				<barchart active="true" width="128" height="90" />
			</node>
			<textbox>
				<caption>Input file: genie_ready_2024_10.csv\nData rows: 202661\nElapsed time: 9.172s\n\nLearning algorithm: Bayesian Search\nAlgorithm parameters:\nIterations: 20\nMax parent count: 8\nSample size: 50\nLink probability: 0.1\nPrior link probability: 0.001\nSeed: 0\nMax search time: 0\nNo background knowledge\n\nBest score in iteration 19: -2.07063e+06\nEM Log Likelihood: -2.12649e+06</caption>
				<font color="000000" name="Arial" size="8" />
				<position>10 202 203 440</position>
			</textbox>
		</genie>
	</extensions>
</smile>