<?xml version="1.0" encoding="UTF-8"?>
<!-- This network was created in GeNIe Academic, which can be used for academic teaching and research purposes only -->
<smile version="1.0" id="genie_ready_2024_10" numsamples="10000" discsamples="10000">
	<nodes>
		<cpt id="road_type">
			<state id="State1" />
			<state id="State2" />
			<state id="State3" />
			<state id="State6" />
			<state id="State7" />
			<state id="State9" />
			<probabilities>0.05810688785706179 0.01506950029852808 0.187386818381435 0.7071562856198282 0.01796102851559994 0.01431947932754699</probabilities>
		</cpt>
		<cpt id="speed_limit">
			<state id="State20" />
			<state id="State30" />
			<state id="State40" />
			<state id="State50" />
			<state id="State60" />
			<state id="State70" />
			<parents>road_type</parents>
			<probabilities>0.09281589673913043 0.5386379076086957 0.1745923913043478 0.06411345108695651 0.08483355978260869 0.04500679347826087 0.6085651936715767 0.3696126568466995 0.009874522640480089 0.003982542280414621 0.007910529187124933 5.455537370430988e-05 0.06040657257215083 0.2111860122182431 0.159758795028439 0.1076469349062566 0.04305350747840742 0.4179481777965031 0.145346349042429 0.5070276921073076 0.08921087030343627 0.05497136823106373 0.2034425573682032 1.162947560368608e-06 0.09945054945054944 0.2401098901098901 0.1398351648351648 0.07445054945054945 0.07802197802197802 0.3681318681318682 0.4948311509303928 0.4176430048242591 0.01791867677463818 0.008614748449345278 0.02894555478980014 0.03204686423156444</probabilities>
		</cpt>
		<cpt id="weather_conditions">
			<state id="State1" />
			<state id="State2" />
			<state id="State3" />
			<state id="State4" />
			<state id="State5" />
			<state id="State6" />
			<state id="State7" />
			<state id="State8" />
			<state id="State9" />
			<probabilities>0.7993447185200903 0.1271334889297892 0.002802709944192518 0.009607176516448651 0.01250363908201381 0.0002121769852117576 0.005807728176610201 0.02624579963584508 0.01634256220979863</probabilities>
		</cpt>
		<cpt id="number_of_casualties">
			<state id="Few" />
			<state id="Many" />
			<state id="One" />
			<state id="Two" />
			<parents>speed_limit weather_conditions</parents>
			<probabilities>0.07509648127128263 0.01525539160045403 0.7572758229284904 0.152372304199773 0.09622331691297209 0.003940886699507389 0.7330049261083744 0.1668308702791461 0.00641025641025641 0.00641025641025641 0.7756410256410257 0.2115384615384615 0.08928571428571429 0.001050420168067227 0.7321428571428571 0.1775210084033613 0.04187817258883248 0.001269035532994924 0.8439086294416243 0.1129441624365482 0.05 0.05 0.05 0.8500000000000001 0.004901960784313725 0.1225490196078431 0.75 0.1225490196078431 0.06602443609022556 0.0002349624060150376 0.7831296992481203 0.1506109022556391 0.02732128184059162 0.0002054231717337716 0.9065324568611339 0.06594083812654067 0.1421861656703672 0.01139087077490978 0.634169857579681 0.212253105975042 0.152791468769603 0.01102249305493324 0.6019356573169639 0.2342503808584999 0.09320175438596491 0.001096491228070175 0.5537280701754386 0.3519736842105263 0.09917355371900827 0.04958677685950413 0.6198347107438017 0.231404958677686 0.2027027027027027 0.0822072072072072 0.5123873873873874 0.2027027027027027 0.4464285714285714 0.01785714285714286 0.375 0.1607142857142857 0.2356495468277946 0.05438066465256797 0.4924471299093656 0.2175226586102719 0.1570762052877138 0.009331259720062209 0.6251944012441679 0.208398133748056 0.07028985507246377 0.0001449275362318841 0.8366666666666667 0.09289855072463768 0.215367841156892 0.02978308274991392 0.494031906346838 0.260817169746356 0.2244684559079819 0.02091321017776229 0.4646218194492855 0.2899965144649704 0.0108695652173913 0.0108695652173913 0.5326086956521739 0.4456521739130435 0.2540160642570281 0.001004016064257028 0.4387550200803212 0.3062248995983936 0.2150537634408602 0.1612903225806452 0.4157706093189964 0.2078853046594982 0.04166666666666666 0.04166666666666666 0.875 0.04166666666666666 0.1392045454545455 0.002840909090909091 0.3551136363636364 0.5028409090909091 0.129088785046729 0.0005841121495327102 0.6734813084112149 0.1968457943925233 0.1697080291970803 0.001824817518248175 0.6660583941605839 0.1624087591240876 0.2656205690518953 0.03308441251536062 0.4156347480858305 0.2856602703469137 0.2746858168761221 0.02633153800119689 0.4129263913824057 0.2860562537402753 0.1333333333333333 0.4666666666666667 0.3111111111111111 0.08888888888888889 0.2303571428571428 0.001785714285714286 0.4375 0.3303571428571428 0.2445945945945946 0.001351351351351351 0.45 0.3040540540540541 0.0625 0.0625 0.8125 0.0625 0.298828125 0.001953125 0.244140625 0.455078125 0.2816742081447964 0.001131221719457014 0.4626696832579186 0.2545248868778281 0.1330645161290323 0.004032258064516129 0.6008064516129032 0.2620967741935484 0.2695571312332907 0.02499128211089155 0.4103607268782207 0.2950908597775969 0.2565922920892495 0.03017241379310345 0.4120182555780933 0.3012170385395537 0.002577319587628866 0.002577319587628866 0.6005154639175257 0.3943298969072165 0.342378752886836 0.0005773672055427252 0.4162817551963048 0.2407621247113164 0.3075815738963532 0.0004798464491362764 0.3421305182341651 0.3498080614203455 0.02272727272727273 0.02272727272727273 0.3863636363636364 0.5681818181818182 0.263681592039801 0.07462686567164178 0.3631840796019901 0.2985074626865671 0.2125890736342043 0.0166270783847981 0.4429928741092637 0.327790973871734 0.001953125 0.001953125 0.712890625 0.283203125 0.2868314275175212 0.06093692364441165 0.3782368129841387 0.2739948358539284 0.2596685082872928 0.194995125121872 0.3217419564510887 0.2235944101397465 0.04285714285714286 0.65 0.2071428571428571 0.09999999999999999 0.2003012048192771 0.001506024096385542 0.411144578313253 0.3870481927710844 0.1841541755888651 0.2633832976445396 0.3254817987152034 0.2269807280513919 0.02777777777777778 0.02777777777777778 0.4722222222222222 0.4722222222222222 0.4 0.2666666666666667 0.2333333333333333 0.1 0.139030612244898 0.001275510204081633 0.4196428571428571 0.4400510204081632 0.3316326530612245 0.00510204081632653 0.5357142857142857 0.1275510204081633</probabilities>
		</cpt>
		<cpt id="road_surface_conditions">
			<state id="State1" />
			<state id="State2" />
			<state id="State3" />
			<state id="State4" />
			<state id="State5" />
			<state id="State9" />
			<parents>road_type weather_conditions</parents>
			<probabilities>0.8589987325728771 0.1300168990283059 0.0002112378538234052 0.008555133079847909 0.0001056189269117026 0.002112378538234051 0.01340868794326241 0.9834884751773046 0.0001108156028368794 0.0001108156028368794 0.0007757092198581558 0.002105496453900708 0.08333333333333336 0.1547619047619048 0.5833333333333334 0.1547619047619048 0.01190476190476191 0.01190476190476191 0.5531609195402298 0.4410919540229884 0.001436781609195402 0.001436781609195402 0.001436781609195402 0.001436781609195402 0.001851851851851851 0.9907407407407405 0.001851851851851851 0.001851851851851851 0.001851851851851851 0.001851851851851851 0.1666666666666667 0.1666666666666667 0.1666666666666667 0.1666666666666667 0.1666666666666667 0.1666666666666667 0.06462585034013607 0.860544217687075 0.003401360544217688 0.04421768707482994 0.003401360544217688 0.02380952380952382 0.6891217564870258 0.2370259481037924 0.003493013972055888 0.05738522954091815 0.0004990019960079839 0.0124750499001996 0.4959935897435898 0.1209935897435898 0.0008012820512820513 0.01041666666666667 0.0008012820512820513 0.3709935897435898 0.8863290438632907 0.0988653659886537 6.918500069185003e-05 0.01086204510862046 6.918500069185003e-05 0.003805175038051751 0.0253623188405797 0.9632505175983435 0.0005175983436853 0.0005175983436853 0.0005175983436853 0.009834368530020701 0.08333333333333331 0.5833333333333333 0.08333333333333331 0.08333333333333331 0.08333333333333331 0.08333333333333331 0.6594202898550723 0.3115942028985507 0.007246376811594201 0.007246376811594201 0.007246376811594201 0.007246376811594201 0.00833333333333333 0.958333333333333 0.00833333333333333 0.00833333333333333 0.00833333333333333 0.00833333333333333 0.1666666666666667 0.1666666666666667 0.1666666666666667 0.1666666666666667 0.1666666666666667 0.1666666666666667 0.3518518518518517 0.4629629629629629 0.01851851851851851 0.01851851851851851 0.01851851851851851 0.1296296296296296 0.7509689922480621 0.2218992248062016 0.0009689922480620157 0.006782945736434111 0.0009689922480620157 0.0184108527131783 0.6111111111111109 0.1158730158730158 0.001587301587301587 0.02063492063492063 0.001587301587301587 0.2492063492063492 0.8631589646293535 0.1283710529882098 0.00118579753354113 0.006267786963003117 0.000237159506708226 0.0007792383791841713 0.01816001370567072 0.8725372622922735 0.0003426417680315231 0.08891553880418024 0.01987322254582834 0.0001713208840157615 0.01759259259259259 0.2675925925925926 0.1064814814814815 0.600925925925926 0.000925925925925926 0.006481481481481482 0.6834192439862541 0.3122852233676975 0.0004295532646048108 0.0004295532646048108 0.003006872852233676 0.0004295532646048108 0.009593931280678272 0.8302097278000894 0.1207050423917894 0.001561802766622044 0.03770638107987507 0.0002231146809460063 0.01515151515151515 0.01515151515151515 0.8333333333333335 0.1060606060606061 0.01515151515151515 0.01515151515151515 0.111323155216285 0.8555979643765903 0.0006361323155216284 0.03117048346055979 0.0006361323155216284 0.0006361323155216284 0.4276164130935916 0.4511295527893039 0.002996772706316275 0.1136468418626095 0.0002305209774089443 0.004379898570769941 0.8218390804597699 0.07262277951933123 0.0005224660397074189 0.003657262277951932 0.0005224660397074189 0.1008359456635318 0.8475526281802919 0.1433380687933187 0.0002755176718756726 0.008041672047871195 0.0001377588359378363 0.0006543544707047225 0.02268289881704376 0.9653152635810268 0.001148501205926266 0.001895026989778339 0.007235557597335477 0.001722751808889399 0.03667595171773444 0.2790157845868152 0.4517177344475394 0.2316620241411328 0.0004642525533890435 0.0004642525533890435 0.5992619926199262 0.3859778597785978 0.0007380073800738007 0.01107011070110701 0.002214022140221402 0.0007380073800738007 0.006846515430206416 0.952891886368281 0.0001021867974657674 0.0001021867974657674 0.03811567545473124 0.001941549151849581 0.04320987654320987 0.228395061728395 0.4876543209876543 0.228395061728395 0.006172839506172839 0.006172839506172839 0.1851630867143994 0.784208432776452 0.0001988862370723946 0.02883850437549722 0.0001988862370723946 0.001392203659506763 0.4913770230830459 0.4027593526134253 0.001061289466702043 0.1008224993366941 0.001857256566728575 0.002122578933404086 0.5793071161048687 0.1388576779026217 0.001217228464419475 0.004026217228464419 9.363295880149809e-05 0.2764981273408239 0.8641379310344827 0.1275862068965517 0.001034482758620689 0.005172413793103448 0.0003448275862068965 0.001724137931034483 0.01697851697851697 0.9733194733194732 0.0003465003465003464 0.0003465003465003464 0.008662508662508662 0.0003465003465003464 0.01282051282051282 0.3974358974358975 0.4743589743589744 0.08974358974358976 0.01282051282051282 0.01282051282051282 0.5833333333333335 0.3833333333333334 0.003333333333333334 0.02333333333333334 0.003333333333333334 0.003333333333333334 0.005376344086021504 0.9731182795698923 0.005376344086021504 0.005376344086021504 0.005376344086021504 0.005376344086021504 0.1666666666666667 0.1666666666666667 0.1666666666666667 0.1666666666666667 0.1666666666666667 0.1666666666666667 0.1031746031746031 0.8650793650793648 0.007936507936507933 0.007936507936507933 0.007936507936507933 0.007936507936507933 0.6345565749235472 0.2584097859327216 0.001529051987767583 0.09327217125382259 0.001529051987767583 0.01070336391437309 0.7182539682539685 0.0515873015873016 0.003968253968253969 0.003968253968253969 0.0515873015873016 0.1706349206349207 0.8481837606837604 0.1167735042735042 0.003952991452991452 0.005876068376068373 0.0001068376068376068 0.0251068376068376 0.05766192733017379 0.9060031595576621 0.0007898894154818327 0.0007898894154818327 0.0007898894154818327 0.03396524486571881 0.02777777777777777 0.1944444444444444 0.02777777777777777 0.6944444444444443 0.02777777777777777 0.02777777777777777 0.2083333333333333 0.7083333333333331 0.008333333333333331 0.008333333333333331 0.008333333333333331 0.05833333333333333 0.007936507936507933 0.96031746031746 0.007936507936507933 0.007936507936507933 0.007936507936507933 0.007936507936507933 0.02083333333333333 0.02083333333333333 0.8958333333333334 0.02083333333333333 0.02083333333333333 0.02083333333333333 0.04166666666666666 0.2916666666666667 0.04166666666666666 0.5416666666666666 0.04166666666666666 0.04166666666666666 0.8394777265745009 0.07450076804915516 0.0007680491551459294 0.01920122887864824 0.005376344086021507 0.06067588325652842 0.07889660493827161 0.007137345679012345 0.0001929012345679012 0.0001929012345679012 0.001350308641975309 0.9122299382716048</probabilities>
		</cpt>
		<cpt id="light_conditions">
			<state id="State1" />
			<state id="State4" />
			<state id="State5" />
			<state id="State6" />
			<state id="State7" />
			<parents>road_surface_conditions speed_limit</parents>
			<probabilities>0.7542771197593533 0.2301184433164129 0.004465125023500658 0.003525098702763677 0.007614213197969543 0.7772068771567122 0.1967985649787939 0.005411732514479425 0.009120897496313637 0.0114619278537008 0.7815730925271561 0.1639183352964272 0.005365789818086638 0.03945818610129564 0.00968459625703442 0.7855789590995207 0.1149002563245291 0.002786136186336788 0.08759612169842862 0.009138526691184664 0.8235961429381735 0.02840801663830592 0.004112308564946114 0.1354698430705237 0.008413688788050671 0.7591653995607367 0.1082108464267613 0.009967899983105254 0.1082108464267613 0.01444500760263558 0.5313897335002683 0.4337327848327669 0.01430871042747272 0.008585226256483634 0.01198354498300841 0.547811566180348 0.4008173668483037 0.01190894709087713 0.02201617155914923 0.01744594832132185 0.5660630449362843 0.3122065727699531 0.01458752515090543 0.0937290409121395 0.01341381623071764 0.5900233826968044 0.2062873473629514 0.01273057937126527 0.1831644583008574 0.007794232268121591 0.6234857366158656 0.04972645564673701 0.006154747948417351 0.3064673700664322 0.01416568972254787 0.5294357302913016 0.1772255041760033 0.01201874108779792 0.2690975758810348 0.01222244856386229 0.6833333333333335 0.2666666666666668 0.01666666666666667 0.01666666666666667 0.01666666666666667 0.5751937984496124 0.3503875968992248 0.04031007751937984 0.03255813953488372 0.001550387596899225 0.2210526315789474 0.536842105263158 0.01052631578947369 0.2210526315789474 0.01052631578947369 0.8480000000000001 0.008000000000000002 0.008000000000000002 0.04800000000000001 0.08800000000000002 0.7999999999999999 0.002247191011235955 0.002247191011235955 0.1820224719101123 0.01348314606741573 0.6871794871794872 0.07820512820512819 0.001282051282051282 0.2320512820512821 0.001282051282051282 0.4492537313432837 0.4940298507462688 0.04626865671641792 0.001492537313432836 0.008955223880597017 0.5086551264980027 0.40745672436751 0.01065246338215712 0.05193075898801598 0.02130492676431425 0.6696132596685084 0.2165745856353592 0.001104972375690608 0.1005524861878453 0.01215469613259669 0.6641221374045801 0.1450381679389313 0.007633587786259542 0.1679389312977099 0.01526717557251908 0.5403087478559176 0.02401372212692967 0.001715265866209262 0.4082332761578045 0.02572898799313894 0.2632111251580278 0.0268015170670038 0.0002528445006321113 0.704424778761062 0.005309734513274337 0.2999999999999999 0.5499999999999999 0.04999999999999999 0.04999999999999999 0.04999999999999999 0.4358208955223881 0.3611940298507463 0.002985074626865672 0.182089552238806 0.01791044776119403 0.3 0.5916666666666667 0.008333333333333335 0.09166666666666669 0.008333333333333335 0.4153846153846154 0.03076923076923077 0.005128205128205128 0.5435897435897435 0.005128205128205128 0.4707964601769911 0.01061946902654867 0.001769911504424779 0.5150442477876105 0.001769911504424779 0.5455882352941177 0.1191176470588235 0.06764705882352941 0.2661764705882353 0.001470588235294118 0.6895348837209302 0.15 0.0127906976744186 0.01162790697674419 0.136046511627907 0.6728232189973614 0.1820580474934037 0.01319261213720316 0.0079155672823219 0.1240105540897098 0.7333333333333333 0.1878787878787879 0.006060606060606061 0.006060606060606061 0.06666666666666668 0.68 0.2133333333333334 0.01333333333333334 0.01333333333333334 0.08000000000000002 0.275 0.275 0.025 0.15 0.275 0.5777777777777777 0.2444444444444445 0.02222222222222222 0.02222222222222222 0.1333333333333333</probabilities>
		</cpt>
		<cpt id="urban_or_rural_area">
			<state id="State1" />
			<state id="State2" />
			<state id="State3" />
			<parents>light_conditions</parents>
			<probabilities>0.568440306410133 0.4314909300950312 6.876349483586154e-05 0.8020731042007637 0.1979185026648202 8.393134416047672e-06 0.6210205992509363 0.3787453183520599 0.0002340823970037453 0.07566597857072642 0.9243094465742651 2.457485500835545e-05 0.6223711882229231 0.3774973711882229 0.0001314405888538381</probabilities>
		</cpt>
		<cpt id="casualty_type">
			<state id="Cyclist" />
			<state id="Pedestrian" />
			<state id="VehicleOccupant" />
			<parents>speed_limit number_of_casualties</parents>
			<probabilities>0.8936988936988938 0.09187109187109188 0.01443001443001443 0.9096045197740112 0.05084745762711865 0.03954802259887005 0.2568336861914843 0.6700070571630204 0.07315925664549518 0.7183468705207835 0.2276636407071189 0.05398948877209746 0.9656080557707203 0.02254066615027111 0.01185127807900852 0.9763851044504995 0.01998183469573115 0.003633060853769301 0.4313178620919504 0.4837130979319055 0.08496903997614412 0.8703048590157112 0.09218603683279576 0.03750910415149308 0.9678958785249457 0.009110629067245119 0.02299349240780911 0.9093333333333332 0.09013333333333332 0.0005333333333333331 0.6070417217292807 0.2705304889560128 0.1224277893147064 0.922941280197496 0.03456180567801093 0.04249691412449303 0.973699421965318 0.004913294797687861 0.02138728323699422 0.9479166666666666 0.0008012820512820513 0.05128205128205128 0.6967515688445921 0.1548541897379107 0.1483942414174972 0.9221092077087795 0.01900428265524625 0.0588865096359743 0.9630927353422097 0.009226816164447559 0.02768044849334268 0.9876237623762376 0.01113861386138614 0.001237623762376238 0.6752982032311642 0.1605767778952137 0.1641250188736222 0.915952331172904 0.02435709805561363 0.05969057077148233 0.9648873553886747 0.005277044854881266 0.02983559975644408 0.9686018957345972 0.01421800947867299 0.01718009478672986 0.8329754601226994 0.05858895705521473 0.1084355828220859 0.9427659574468085 0.01170212765957447 0.04553191489361702</probabilities>
		</cpt>
		<cpt id="collision_severity">
			<state id="State1" />
			<state id="State2" />
			<state id="State3" />
			<parents>number_of_casualties urban_or_rural_area casualty_type speed_limit</parents>
			<probabilities>0.01624129930394431 0.2320185614849188 0.7517401392111369 0.01737220447284345 0.2995207667731629 0.6831070287539935 0.02117183653372723 0.3471196454948302 0.6317085179714427 0.01796407185628743 0.3323353293413174 0.6497005988023953 0.0234375 0.53125 0.4453125 0.01458885941644562 0.2745358090185676 0.7108753315649867 0.09550561797752809 0.5224719101123595 0.3820224719101123 0.05660377358490566 0.5320754716981132 0.4113207547169812 0.06896551724137931 0.6551724137931034 0.2758620689655172 0.08333333333333333 0.08333333333333333 0.8333333333333334 0.06666666666666667 0.4666666666666667 0.4666666666666667 0.3333333333333333 0.3333333333333333 0.3333333333333333 0.01075268817204301 0.4301075268817204 0.5591397849462365 0.05084745762711865 0.5338983050847458 0.4152542372881356 0.005952380952380952 0.3988095238095238 0.5952380952380952 0.1111111111111111 0.7777777777777777 0.1111111111111111 0.04761904761904762 0.04761904761904762 0.9047619047619047 0.008771929824561403 0.3771929824561404 0.6140350877192982 0.05223880597014925 0.3134328358208955 0.6343283582089552 0.01877551020408163 0.283265306122449 0.6979591836734694 0.0337309749074455 0.390785684903332 0.5754833401892225 0.08071084783413551 0.376156978896705 0.5431321732691596 0.07922403003754692 0.4375469336670838 0.4832290362953692 0.065 0.33875 0.5962500000000001 0.2307692307692308 0.6923076923076923 0.07692307692307693 0.01234567901234568 0.308641975308642 0.6790123456790123 0.02380952380952381 0.9523809523809523 0.02380952380952381 0.02222222222222222 0.5555555555555556 0.4222222222222222 0.1333333333333333 0.52 0.3466666666666667 0.3846153846153846 0.5384615384615385 0.07692307692307693 0.3333333333333333 0.3333333333333333 0.3333333333333333 0.009259259259259259 0.5648148148148148 0.4259259259259259 0.00641025641025641 0.5641025641025641 0.4294871794871795 0.1805555555555556 0.6388888888888888 0.1805555555555556 0.303030303030303 0.3852813852813853 0.3116883116883117 0.05454545454545454 0.2 0.7454545454545454 0.3333333333333333 0.3333333333333333 0.3333333333333333 0.3333333333333333 0.3333333333333333 0.3333333333333333 0.3333333333333333 0.3333333333333333 0.3333333333333333 0.3333333333333333 0.3333333333333333 0.3333333333333333 0.3333333333333333 0.3333333333333333 0.3333333333333333 0.3333333333333333 0.3333333333333333 0.3333333333333333 0.3333333333333333 0.3333333333333333 0.3333333333333333 0.3333333333333333 0.3333333333333333 0.3333333333333333 0.3333333333333333 0.3333333333333333 0.3333333333333333 0.3333333333333333 0.3333333333333333 0.3333333333333333 0.3333333333333333 0.3333333333333333 0.3333333333333333 0.3333333333333333 0.3333333333333333 0.3333333333333333 0.3333333333333333 0.3333333333333333 0.3333333333333333 0.3333333333333333 0.3333333333333333 0.3333333333333333 0.3333333333333333 0.3333333333333333 0.3333333333333333 0.3333333333333333 0.3333333333333333 0.3333333333333333 0.3333333333333333 0.3333333333333333 0.3333333333333333 0.3333333333333333 0.3333333333333333 0.3333333333333333 0.0011001100110011 0.6050605060506051 0.3938393839383938 0.06478209658421671 0.3333333333333333 0.6018845700824499 0.001642036124794745 0.4893267651888341 0.509031198686371 0.01333333333333333 0.4933333333333333 0.4933333333333333 0.02222222222222222 0.9555555555555554 0.02222222222222222 0.003174603174603175 0.4603174603174604 0.5365079365079366 0.01754385964912281 0.8596491228070177 0.1228070175438597 0.1818181818181818 0.2727272727272727 0.5454545454545454 0.3333333333333333 0.3333333333333333 0.3333333333333333 0.3333333333333333 0.3333333333333333 0.3333333333333333 0.3333333333333333 0.3333333333333333 0.3333333333333333 0.3333333333333333 0.3333333333333333 0.3333333333333333 0.3333333333333333 0.3333333333333333 0.3333333333333333 0.1111111111111111 0.1111111111111111 0.7777777777777778 0.3333333333333333 0.3333333333333333 0.3333333333333333 0.3333333333333333 0.3333333333333333 0.3333333333333333 0.3333333333333333 0.3333333333333333 0.3333333333333333 0.04761904761904762 0.04761904761904762 0.9047619047619047 0.01587301587301588 0.8730158730158731 0.1111111111111111 0.001468428781204111 0.9001468428781204 0.09838472834067546 0.09836065573770492 0.4262295081967213 0.4754098360655737 0.1378378378378378 0.3297297297297297 0.5324324324324324 0.1530612244897959 0.5535714285714285 0.2933673469387755 0.100587851077727 0.6126714565643371 0.286740692357936 0.3333333333333333 0.3333333333333333 0.3333333333333333 0.3333333333333333 0.3333333333333333 0.3333333333333333 0.005847953216374269 0.9883040935672515 0.005847953216374269 0.3333333333333333 0.3333333333333333 0.3333333333333333 0.03333333333333333 0.9333333333333332 0.03333333333333333 0.01333333333333334 0.9733333333333335 0.01333333333333334 0.02222222222222222 0.02222222222222222 0.9555555555555556 0.1111111111111111 0.1111111111111111 0.7777777777777778 0.3333333333333333 0.3333333333333333 0.3333333333333333 0.9696969696969698 0.01515151515151515 0.01515151515151515 0.6666666666666667 0.1666666666666667 0.1666666666666667 0.8472222222222223 0.1388888888888889 0.01388888888888889 0.3333333333333333 0.3333333333333333 0.3333333333333333 0.3333333333333333 0.3333333333333333 0.3333333333333333 0.3333333333333333 0.3333333333333333 0.3333333333333333 0.3333333333333333 0.3333333333333333 0.3333333333333333 0.3333333333333333 0.3333333333333333 0.3333333333333333 0.3333333333333333 0.3333333333333333 0.3333333333333333 0.3333333333333333 0.3333333333333333 0.3333333333333333 0.3333333333333333 0.3333333333333333 0.3333333333333333 0.3333333333333333 0.3333333333333333 0.3333333333333333 0.3333333333333333 0.3333333333333333 0.3333333333333333 0.3333333333333333 0.3333333333333333 0.3333333333333333 0.3333333333333333 0.3333333333333333 0.3333333333333333 0.3333333333333333 0.3333333333333333 0.3333333333333333 0.3333333333333333 0.3333333333333333 0.3333333333333333 0.3333333333333333 0.3333333333333333 0.3333333333333333 0.3333333333333333 0.3333333333333333 0.3333333333333333 0.3333333333333333 0.3333333333333333 0.3333333333333333 0.3333333333333333 0.3333333333333333 0.3333333333333333 0.00198373338623289 0.08708589565562389 0.9109303709581432 0.00253416149068323 0.1190062111801242 0.8784596273291926 0.00459016393442623 0.1131147540983607 0.8822950819672131 0.001169590643274854 0.1380116959064328 0.8608187134502924 0.009174311926605505 0.1467889908256881 0.8440366972477065 0.004087193460490463 0.1212534059945504 0.8746594005449591 0.005627420887232332 0.2241467514433969 0.7702258276693708 0.009040333796940194 0.2662194224003927 0.7247402438026671 0.0238788584740827 0.3051834595224228 0.6709376820034945 0.0170940170940171 0.2820512820512821 0.7008547008547009 0.07954545454545454 0.375 0.5454545454545454 0.1234567901234568 0.3333333333333333 0.5432098765432098 0.003469812630117973 0.3004857737682165 0.6960444136016655 0.02126594946209657 0.396797598198649 0.5819364523392544 0.02466793168880456 0.4648956356736243 0.5104364326375712 0.00228310502283105 0.365296803652968 0.6324200913242009 0.03703703703703703 0.3703703703703703 0.5925925925925926 0.06666666666666667 0.3666666666666667 0.5666666666666667 0.007177033492822966 0.1626794258373206 0.8301435406698564 0.003808243727598566 0.1323924731182796 0.8637992831541219 0.009760425909494231 0.1401952085181899 0.8500443655723158 0.01301369863013699 0.1476027397260274 0.8393835616438357 0.01752146669760965 0.1943606405198422 0.7881178927825482 0.01532893336172025 0.1628699169682776 0.8218011496700022 0.007168458781362007 0.2759856630824373 0.7168458781362007 0.01182108626198083 0.3057507987220447 0.6824281150159744 0.03742384682332463 0.4107919930374238 0.5517841601392515 0.0396694214876033 0.4016528925619834 0.5586776859504132 0.0426679744973026 0.4546346248160864 0.5026974006866111 0.2524916943521595 0.3687707641196014 0.3787375415282392 0.008771929824561403 0.4122807017543859 0.5789473684210527 0.03305785123966942 0.4025974025974026 0.564344746162928 0.05974025974025974 0.4116883116883117 0.5285714285714286 0.05311077389984826 0.4552352048558422 0.4916540212443096 0.06736741519350214 0.5504061156235069 0.3822264691829909 0.06645056726094004 0.4943273905996758 0.4392220421393841 0.3333333333333333 0.3333333333333333 0.3333333333333333 0.3333333333333333 0.3333333333333333 0.3333333333333333 0.3333333333333333 0.3333333333333333 0.3333333333333333 0.3333333333333333 0.3333333333333333 0.3333333333333333 0.3333333333333333 0.3333333333333333 0.3333333333333333 0.3333333333333333 0.3333333333333333 0.3333333333333333 0.3333333333333333 0.3333333333333333 0.3333333333333333 0.3333333333333333 0.3333333333333333 0.3333333333333333 0.3333333333333333 0.3333333333333333 0.3333333333333333 0.3333333333333333 0.3333333333333333 0.3333333333333333 0.3333333333333333 0.3333333333333333 0.3333333333333333 0.3333333333333333 0.3333333333333333 0.3333333333333333 0.3333333333333333 0.3333333333333333 0.3333333333333333 0.3333333333333333 0.3333333333333333 0.3333333333333333 0.3333333333333333 0.3333333333333333 0.3333333333333333 0.3333333333333333 0.3333333333333333 0.3333333333333333 0.3333333333333333 0.3333333333333333 0.3333333333333333 0.3333333333333333 0.3333333333333333 0.3333333333333333 0.003282275711159737 0.1663019693654267 0.8304157549234136 0.00496443390634262 0.1867219917012448 0.8083135743924125 0.008539709649871904 0.2147736976942784 0.7766865926558497 0.02165087956698241 0.1299052774018944 0.8484438430311232 0.05797101449275362 0.1956521739130435 0.7463768115942029 0.01713062098501071 0.1477516059957173 0.835117773019272 0.01984564498346196 0.3969128996692393 0.5832414553472988 0.01745313510019392 0.3956043956043956 0.5869424692954105 0.07200000000000001 0.52 0.408 0.02777777777777777 0.6944444444444443 0.2777777777777777 0.3333333333333333 0.3333333333333333 0.3333333333333333 0.02777777777777777 0.9444444444444443 0.02777777777777777 0.02617801047120419 0.549738219895288 0.4240837696335079 0.0409556313993174 0.5068259385665529 0.4522184300341297 0.02803738317757009 0.6355140186915887 0.3364485981308411 0.05555555555555555 0.1666666666666667 0.7777777777777777 0.02564102564102564 0.1794871794871795 0.7948717948717949 0.3076923076923077 0.4615384615384616 0.2307692307692308 0.0012531328320802 0.2531328320802005 0.7456140350877193 0.005884174667079591 0.2310312790337566 0.7630845462991638 0.01452282157676349 0.2690179806362379 0.7164591977869986 0.02699704142011834 0.2814349112426036 0.6915680473372781 0.03794485034173933 0.3024982323827481 0.6595569172755127 0.02878787878787879 0.2232323232323232 0.747979797979798 0.007092198581560284 0.4113475177304964 0.5815602836879432 0.04 0.3777777777777778 0.5822222222222222 0.07042253521126761 0.4366197183098592 0.4929577464788732 0.1833333333333333 0.3333333333333333 0.4833333333333333 0.0748898678414097 0.5682819383259913 0.3568281938325992 0.4090909090909091 0.4090909090909091 0.1818181818181818 0.009259259259259259 0.5092592592592592 0.4814814814814814 0.04444444444444445 0.562962962962963 0.3925925925925926 0.05223880597014925 0.5671641791044776 0.3805970149253731 0.1739130434782609 0.483695652173913 0.3423913043478261 0.1806797853309481 0.4973166368515206 0.3220035778175313 0.05319148936170213 0.5319148936170213 0.4148936170212766 0.3333333333333333 0.3333333333333333 0.3333333333333333 0.06666666666666667 0.06666666666666667 0.8666666666666667 0.3333333333333333 0.3333333333333333 0.3333333333333333 0.1111111111111111 0.1111111111111111 0.7777777777777778 0.3333333333333333 0.3333333333333333 0.3333333333333333 0.06666666666666667 0.06666666666666667 0.8666666666666667 0.3333333333333333 0.3333333333333333 0.3333333333333333 0.3333333333333333 0.3333333333333333 0.3333333333333333 0.3333333333333333 0.3333333333333333 0.3333333333333333 0.3333333333333333 0.3333333333333333 0.3333333333333333 0.3333333333333333 0.3333333333333333 0.3333333333333333 0.3333333333333333 0.3333333333333333 0.3333333333333333 0.3333333333333333 0.3333333333333333 0.3333333333333333 0.3333333333333333 0.3333333333333333 0.3333333333333333 0.3333333333333333 0.3333333333333333 0.3333333333333333 0.3333333333333333 0.3333333333333333 0.3333333333333333 0.3333333333333333 0.3333333333333333 0.3333333333333333 0.3333333333333333 0.3333333333333333 0.3333333333333333</probabilities>
		</cpt>
		<cpt id="vehicle_manoeuvre">
			<state id="AvoidingOrReversing" />
			<state id="GoingAhead" />
			<state id="Overtaking" />
			<state id="ParkingRelated" />
			<state id="PassengerPickDrop" />
			<state id="Turning" />
			<parents>road_type speed_limit</parents>
			<probabilities>0.6660567246111619 0.04757548032936871 0.1399817017383349 0.01646843549862763 0.008234217749313816 0.1216834400731931 0.5863156235219927 0.07204792684849441 0.1499290556518997 0.02270219139208576 0.006936780703137317 0.16206842188239 0.5642023346303502 0.07636186770428016 0.115272373540856 0.04474708171206226 0.005350194552529183 0.1940661478599222 0.5125827814569537 0.1033112582781457 0.1125827814569536 0.06357615894039735 0.01059602649006623 0.1973509933774834 0.5425425425425425 0.09309309309309309 0.0960960960960961 0.04704704704704705 0.01301301301301301 0.2082082082082082 0.530188679245283 0.08490566037735849 0.09622641509433963 0.07735849056603773 0.01132075471698113 0.2 0.6175363098440021 0.09252286175363097 0.1204948897256589 0.01990317374932759 0.0129101667563206 0.1366325981710597 0.537643932683791 0.1328609388839681 0.1505757307351639 0.03100088573959256 0.01682905225863596 0.1310894596988486 0.586021505376344 0.03763440860215053 0.1344086021505376 0.005376344086021504 0.005376344086021504 0.2311827956989247 0.7051282051282053 0.01282051282051282 0.08974358974358977 0.01282051282051282 0.01282051282051282 0.1666666666666667 0.7266666666666665 0.1266666666666666 0.08666666666666663 0.006666666666666664 0.006666666666666664 0.04666666666666665 0.1666666666666667 0.1666666666666667 0.1666666666666667 0.1666666666666667 0.1666666666666667 0.1666666666666667 0.5318221447253706 0.07715780296425458 0.1564952048823017 0.02877070619006103 0.03618134263295554 0.1695727986050567 0.5643391521197008 0.09713216957605984 0.1531172069825436 0.03615960099750623 0.01458852867830424 0.1346633416458853 0.5793637712213615 0.1086204054722268 0.1018625350255481 0.04318444041536179 0.01252678424262403 0.1544420636228779 0.6386986301369862 0.07852250489236789 0.04941291585127201 0.05919765166340508 0.01516634050880626 0.1590019569471624 0.5712538226299694 0.1039755351681957 0.07339449541284403 0.06055045871559633 0.03425076452599388 0.1565749235474006 0.6793724798387096 0.06646925403225806 0.01480594758064516 0.06457913306451613 0.01543598790322581 0.1593371975806452 0.6121939510321651 0.08103696591454633 0.1380220835333653 0.01896303408545367 0.03413346135381661 0.1156505040806529 0.586480237806892 0.090540019817241 0.1629830452493669 0.02360178355168997 0.02894142904326764 0.1074534845315424 0.6440359796636683 0.05631599530700039 0.1311693390692217 0.03269456394211967 0.02878373093468909 0.1070003910833007 0.6609545569941611 0.04823559279004824 0.121985275450622 0.02995684183802996 0.03922315308453923 0.09964457984259965 0.7090478803676773 0.03639045136507065 0.09644670050761421 0.02438606118809164 0.03978597887227329 0.09394292769927287 0.1666666666666667 0.1666666666666667 0.1666666666666667 0.1666666666666667 0.1666666666666667 0.1666666666666667 0.6767955801104972 0.08287292817679558 0.0856353591160221 0.01657458563535912 0.01104972375690608 0.1270718232044199 0.5366132723112128 0.1006864988558352 0.1556064073226545 0.03890160183066362 0.01601830663615561 0.1521739130434783 0.5088408644400786 0.1218074656188605 0.1021611001964636 0.07269155206286837 0.01178781925343811 0.1827111984282908 0.5129151291512914 0.1512915129151292 0.0996309963099631 0.04428044280442804 0.01107011070110701 0.1808118081180812 0.4929577464788732 0.1056338028169014 0.1443661971830986 0.04577464788732395 0.02112676056338028 0.1901408450704225 0.5597014925373134 0.1335820895522388 0.04552238805970149 0.07686567164179105 0.004477611940298508 0.1798507462686567 0.9317548746518106 0.03064066852367688 0.01044568245125348 0.006963788300835654 0.006963788300835654 0.01323119777158774 0.8457095709570958 0.04207920792079208 0.0396039603960396 0.01402640264026403 0.009900990099009901 0.04867986798679868 0.75 0.03846153846153846 0.09615384615384616 0.01923076923076923 0.0576923076923077 0.03846153846153846 0.72 0.04 0.12 0.04 0.04 0.04 0.8372549019607841 0.02549019607843136 0.02549019607843136 0.02549019607843136 0.001960784313725489 0.08431372549019606 0.8421985815602835 0.05496453900709218 0.01241134751773049 0.07624113475177302 0.00177304964539007 0.01241134751773049</probabilities>
		</cpt>
		<cpt id="sex_of_driver">
			<state id="State1" />
			<state id="State2" />
			<state id="State3" />
			<parents>vehicle_manoeuvre</parents>
			<probabilities>0.7007761761444639 0.2788610803104705 0.02036274354506574 0.6358596399686929 0.3545525697886773 0.009587790242629794 0.6290373529179499 0.3607360025270474 0.01022664455500276 0.6492537313432836 0.3387410772225827 0.01200519143413368 0.8161778101657862 0.1643286573146293 0.01949353251958462 0.6522208385222085 0.3372353673723537 0.01054379410543794</probabilities>
		</cpt>
		<cpt id="age_band_of_driver">
			<state id="Adult" />
			<state id="Senior" />
			<state id="Young" />
			<parents>vehicle_manoeuvre</parents>
			<probabilities>0.6239822588309837 0.3643830191667987 0.01163472200221765 0.5825723975997913 0.4152752413253326 0.002152361074876076 0.5916449498539051 0.4033404406538735 0.005014609492221433 0.5953926022063595 0.4005515898767034 0.004055807916937054 0.6946620513754782 0.2987793769356896 0.00655857168883221 0.5818181818181819 0.4108758821087589 0.007305936073059361</probabilities>
		</cpt>
		<cpt id="number_of_vehicles">
			<state id="LargeCrash" />
			<state id="MultiVehicle" />
			<state id="SingleVehicle" />
			<state id="TwoVehicles" />
			<parents>speed_limit casualty_type</parents>
			<probabilities>0.02244974638361826 0.1942513620139019 0.1114972759721961 0.6718016156302837 0.001623060442770889 0.03460364863987535 0.2532623514899695 0.7105109394273843 0.006575342465753424 0.07178082191780821 0.06958904109589041 0.8520547945205479 0.02355128602417106 0.1909987422300808 0.06505769335933941 0.7203922783864088 0.002225144128653788 0.04251373857927919 0.2968207410404234 0.6584403762516436 0.004019573575672841 0.09157637189793778 0.07549807759524642 0.8289059769311429 0.02006588799041629 0.2425876010781671 0.07625037436358191 0.6610961365678347 0.01962025316455696 0.07943037974683545 0.2243670886075949 0.6765822784810127 0.0072992700729927 0.1374695863746959 0.1070559610705596 0.7481751824817519 0.03168533187653647 0.2943640171173632 0.07466083947919512 0.5992898115269052 0.006472491909385113 0.09816612729234088 0.1844660194174757 0.7108953613807982 0.01340482573726542 0.1992850759606792 0.1197497765862377 0.6675603217158177 0.01472842136742552 0.2323651452282158 0.1440693805839034 0.6088370528204553 0.006944444444444445 0.1180555555555556 0.2128267973856209 0.6621732026143791 0.008716057660073752 0.1498491451558834 0.1974522292993631 0.6439825678846799 0.1358685619346502 0.3623776998338564 0.07458002584456341 0.42717371238693 0.1375770020533881 0.1971252566735113 0.2197125256673511 0.4455852156057495 0.06107566089334548 0.2698268003646308 0.1294439380127621 0.5396536007292616</probabilities>
		</cpt>
	</nodes>
	<extensions>
		<genie version="1.0" app="GeNIe 5.0.5310.0 ACADEMIC" name="genie_ready_2024_10">
			<node id="collision_severity">
				<name>collision_severity</name>
				<interior color="e5f6f7" />
				<outline color="000080" />
				<font color="000000" name="Arial" size="8" />
				<position>828 756 900 804</position>
				<barchart active="true" width="128" height="72" />
			</node>
			<node id="weather_conditions">
				<name>weather_conditions</name>
				<interior color="e5f6f7" />
				<outline color="000080" />
				<font color="000000" name="Arial" size="8" />
				<position>324 95 396 143</position>
				<barchart active="true" width="128" height="180" />
			</node>
			<node id="light_conditions">
				<name>light_conditions</name>
				<interior color="e5f6f7" />
				<outline color="000080" />
				<font color="000000" name="Arial" size="8" />
				<position>984 95 1056 143</position>
				<barchart active="true" width="128" height="108" />
			</node>
			<node id="road_surface_conditions">
				<name>road_surface_conditions</name>
				<interior color="e5f6f7" />
				<outline color="000080" />
				<font color="000000" name="Arial" size="8" />
				<position>660 97 732 145</position>
				<barchart active="true" width="128" height="126" />
			</node>
			<node id="road_type">
				<name>road_type</name>
				<interior color="e5f6f7" />
				<outline color="000080" />
				<font color="000000" name="Arial" size="8" />
				<position>488 200 560 248</position>
				<barchart active="true" width="128" height="126" />
			</node>
			<node id="speed_limit">
				<name>speed_limit</name>
				<interior color="e5f6f7" />
				<outline color="000080" />
				<font color="000000" name="Arial" size="8" />
				<position>824 307 896 355</position>
				<barchart active="true" width="128" height="126" />
			</node>
			<node id="urban_or_rural_area">
				<name>urban_or_rural_area</name>
				<interior color="e5f6f7" />
				<outline color="000080" />
				<font color="000000" name="Arial" size="8" />
				<position>985 749 1057 797</position>
				<barchart active="true" width="128" height="72" />
			</node>
			<node id="sex_of_driver">
				<name>sex_of_driver</name>
				<interior color="e5f6f7" />
				<outline color="000080" />
				<font color="000000" name="Arial" size="8" />
				<position>434 509 506 557</position>
				<barchart active="true" width="128" height="72" />
			</node>
			<node id="age_band_of_driver">
				<name>age_band_of_driver</name>
				<interior color="e5f6f7" />
				<outline color="000080" />
				<font color="000000" name="Arial" size="8" />
				<position>429 367 501 415</position>
				<barchart active="true" width="128" height="72" />
			</node>
			<node id="vehicle_manoeuvre">
				<name>vehicle_manoeuvre</name>
				<interior color="e5f6f7" />
				<outline color="000080" />
				<font color="000000" name="Arial" size="8" />
				<position>587 373 659 421</position>
				<barchart active="true" width="128" height="126" />
			</node>
			<node id="casualty_type">
				<name>casualty_type</name>
				<interior color="e5f6f7" />
				<outline color="000080" />
				<font color="000000" name="Arial" size="8" />
				<position>568 670 640 718</position>
				<barchart active="true" width="128" height="72" />
			</node>
			<node id="number_of_vehicles">
				<name>number_of_vehicles</name>
				<interior color="e5f6f7" />
				<outline color="000080" />
				<font color="000000" name="Arial" size="8" />
				<position>739 589 811 637</position>
				<barchart active="true" width="128" height="90" />
			</node>
			<node id="number_of_casualties">
				<name>number_of_casualties</name>
				<interior color="e5f6f7" />
				<outline color="000080" />
				<font color="000000" name="Arial" size="8" />
				<position>325 758 397 806</position>
				<barchart active="true" width="128" height="90" />
			</node>
			<textbox>
				<caption>Input file: genie_ready_2024_10.csv\nData rows: 202661\nElapsed time: 9.172s\n\nLearning algorithm: Bayesian Search\nAlgorithm parameters:\nIterations: 20\nMax parent count: 8\nSample size: 50\nLink probability: 0.1\nPrior link probability: 0.001\nSeed: 0\nMax search time: 0\nNo background knowledge\n\nBest score in iteration 19: -2.07063e+06\nEM Log Likelihood: -2.12649e+06</caption>
				<font color="000000" name="Arial" size="8" />
				<position>10 202 203 440</position>
			</textbox>
		</genie>
	</extensions>
</smile>
